2342 64
100000 -0.10668236 -0.00697696 0.688794 0.6017405 -0.5028477 -0.7024537 0.017920902 0.22267264 -0.062125828 0.4227874 -0.009671826 0.31070697 0.8306804 0.29593462 0.16292636 0.6732059 0.048989218 -0.15865397 0.14123815 -0.034610555 0.455869 0.83615345 0.22593054 -0.19424668 -0.008609384 0.0988824 0.012440595 0.107602626 -0.4196342 -0.42606553 -0.5717457 -0.59902406 -0.35849014 -0.5560856 -0.061220564 0.3356925 0.29684824 0.29573825 0.6580089 0.15199637 0.10603043 0.31773254 -0.37140125 -0.2865328 0.24835688 -0.16673787 -0.35123894 0.31016988 -0.5074489 -0.23400168 0.40074655 0.3263726 0.041046146 -0.32578152 0.15101019 0.052920725 0.453264 -0.6432101 0.043709926 0.31165764 -0.47951818 0.14970723 -0.5375962 0.083948754
849200 0.48419726 -0.12543304 0.14297894 0.5942471 -0.7705989 -0.42097875 0.28893784 0.36961642 0.20493688 -0.6319676 0.2528911 0.44432324 0.9640233 0.33325273 0.49937543 0.13092752 -0.08120103 0.17738359 0.52661455 0.8750784 -0.49249998 0.04863493 0.6009654 -0.7660618 -0.051163238 0.47525066 -0.044635072 0.13093352 0.08255132 -0.4804418 0.27856854 -0.24107397 -0.7891335 -0.5833208 -0.08897346 0.61098 -0.032311846 0.53522354 0.7557908 0.29535764 0.5840916 0.49488124 -0.13734792 0.2618697 0.46492133 -0.21502322 -0.14038272 -0.009139101 -0.8590487 0.48247764 0.3255637 0.38841638 -0.31532782 0.44803685 0.027911639 0.06679192 0.23455836 -0.067347325 0.718976 -0.06863139 -0.48471808 0.29840744 -0.61293805 0.52530694
922000 0.14795043 0.5612295 0.27365935 0.47537184 -0.20632306 -0.24938476 0.23355566 0.0807859 0.4096931 0.3243987 0.060708463 0.71644306 1.0393012 -0.13366863 0.19151942 0.7013197 -0.02869452 -0.11914641 0.5839404 -0.014112715 -0.19957714 0.57304054 0.62776375 -0.7291782 0.14521453 0.47763446 0.25794265 0.089047745 -0.15982316 -0.47204936 -0.05036227 -0.23240359 -0.70380706 -0.44599912 0.014965474 0.1708154 0.11544969 0.36596084 1.0328913 -0.033455495 0.74146974 0.33592868 -0.17643896 -0.32767627 0.3126503 0.21375911 -0.111088246 -0.13169636 -0.79328024 0.5673322 0.45056415 0.0013674962 -0.26349944 -0.085343964 0.47609586 0.1738291 0.24067937 -0.5324501 0.39619347 0.11187169 -0.34396976 -0.15479428 -0.4323148 0.06838941
921200 0.3070608 -0.7796867 -0.21455786 0.060415577 -0.30353686 -0.5154182 -0.36241704 -0.5417843 -1.1629297 -0.32237387 -0.15144452 0.13617547 -0.40678382 0.1758396 -0.27071518 0.13145193 -0.63939506 0.0005040766 0.051003143 0.70025665 -0.566381 -0.20293912 -0.014146976 -0.52587205 0.7280308 0.8044214 -0.43822744 -0.18132782 -0.15846787 0.025214858 -0.95747244 -0.10094291 -0.35197926 0.088102296 0.03598714 -0.027723476 -0.030938255 0.34990314 0.681564 0.560158 0.12869582 0.12708634 -0.5449276 0.60440403 0.7199027 -0.15914468 -0.40114045 -0.046845905 -0.41272086 0.59531695 0.33454165 0.1580097 -0.12424789 0.14935675 0.7164081 -0.3556032 0.4016865 -0.22898117 0.22582811 0.20995069 -0.31863233 -0.048600066 -0.14077042 0.43682107
801200 0.23144999 -0.45146862 0.15117984 0.12441764 -0.21087044 -0.83941996 0.6815323 -0.18914713 -0.34951493 0.47082353 0.2630619 0.3835687 -0.14179306 0.51598287 0.3154068 0.8950286 -0.18613741 -0.39423501 0.026298793 0.9150646 0.9945745 1.1807375 -0.123367734 -0.24560565 0.29411605 -0.4426311 -0.33466 0.41467148 -0.2082487 -0.3607063 -0.27718553 -0.81941307 0.15642437 -0.32768357 -0.3267534 0.20640384 0.87350166 -0.24071448 1.2199742 0.28311285 0.39382464 0.36755645 -0.023925617 -0.3729194 0.12830272 0.6883997 0.03399502 0.04109654 -0.43475133 -0.22236109 0.5675364 0.7728888 0.7501837 -0.4368068 0.7112721 0.3824435 0.49690756 -1.0684328 0.3541894 -0.16819975 -0.23724847 -0.026005708 -0.8674548 0.91999084
440000 0.08023446 -0.3278785 0.5464338 1.0867699 -0.62598646 -0.60099274 0.13821448 0.3688786 0.19981827 -0.28888702 -0.38556096 0.25385192 0.31066602 0.6015812 0.30110553 0.38691065 0.30252713 -0.2131315 -0.0801596 0.593475 0.03363475 0.48519468 0.15060975 -0.77323705 0.6589401 0.51339173 -0.13378362 0.104625866 -0.4495604 -0.42276216 -0.3826905 0.20774275 -0.40327185 -0.85869193 0.26151302 0.42977375 0.53639555 1.0122516 0.43923652 0.73478633 0.12645638 0.5245523 -0.33536208 0.2994636 0.31276417 -0.4196337 -0.08246119 0.5216652 -0.7654129 -0.59531146 0.5914543 0.06372224 -0.08425258 0.41055143 -0.35580453 0.3473582 -0.04095923 -0.011502588 0.32645974 0.4147769 -0.42545795 0.5928406 -0.10410686 0.55389404
366800 0.6415554 -0.17175019 0.6303988 0.39499143 -0.43193468 -0.8088934 -0.27469295 0.355078 -0.17404242 -0.09450242 0.35341257 0.32384008 1.0280567 -0.9129541 0.27822104 0.08302614 -0.7420934 0.18130967 -0.35637137 0.18792903 0.29216138 1.3789995 0.26320288 -0.08524119 -0.07874481 0.7069615 -0.87761736 0.60250187 -0.39173114 -0.36818224 -0.36153805 -0.7998563 -0.21841826 0.15587898 0.41237807 -0.034679458 0.11073767 -0.33320683 0.8916409 0.847634 0.31881663 0.89732426 -0.204908 0.25186202 0.26840317 0.14266437 -0.0053765397 0.14549538 -0.42790526 -0.4899721 0.74316436 -0.2467856 0.2517441 -0.021861201 -0.0019022977 -0.06939173 0.63536125 -0.9748356 -0.521895 1.1790273 -0.17951341 0.17373222 -0.09287061 0.05344806
561200 0.33456576 -0.17996563 -0.04449156 0.63779336 0.63111955 -0.5963999 -0.31827855 -0.84518486 -0.90587616 -0.7809343 -0.9724253 -0.12047866 0.7088052 -0.97499025 0.57477117 0.25885016 -0.5911385 -0.3043751 1.1187105 1.314139 -0.0797358 0.8883768 -0.6724314 0.3209609 -0.6485197 0.2605222 0.16861412 0.51276577 -0.24226622 0.28891185 0.03359105 -0.90584856 -0.5181475 -0.2875944 0.22778396 -0.12943365 -0.011163951 -0.08486736 1.4626278 0.46216944 -0.66391313 0.18149412 -0.045107223 -0.17617327 0.6633565 0.034173153 -0.088867135 -0.28078848 -0.77214307 -0.17522846 0.63802105 0.44443786 -0.05490971 0.08545216 -0.4849262 -0.5683084 0.008795978 -0.3277889 0.33050397 0.6177128 -1.1309599 0.0020300187 -0.44357437 0.27724868
929200 -0.03959177 -0.8766932 -0.32706222 0.35898602 -0.38756755 -0.5041808 -0.44839132 -0.75555706 -0.5659557 0.14808266 -0.1261828 0.6302528 -0.28469077 -0.52173936 0.28598472 0.28394216 -1.1075833 0.28593612 0.084746964 1.1044503 -0.15650137 0.6040652 -0.06386992 -0.08998736 0.6466399 0.11128258 0.04705799 0.28258878 0.33515552 0.17476289 -0.7662958 -0.09769085 -0.295582 -0.19342078 -0.054832637 -0.28894067 0.7369705 0.13131914 0.25618473 -0.31059477 0.67450655 0.34660563 -0.9945008 0.8733301 0.5546264 -0.6428272 -0.6163114 -0.4864358 -0.59995955 0.19315673 0.95414233 -0.5723582 -0.14783399 0.19209482 0.5795269 -0.23715802 0.09534046 -0.93011045 0.70679945 0.58695805 0.052962266 0.48924616 -0.37205714 0.4622787
923600 0.12608743 0.29365048 0.21669094 0.6278695 -0.20979255 -0.47320715 0.24398723 -0.028290056 0.19882755 -0.22172059 -0.02357314 0.65221703 0.7867419 0.1870155 0.09316344 0.66501105 -0.28039113 0.07696222 0.6993688 0.13115631 -0.6070324 0.24307646 0.7251204 -0.4949286 0.14000131 0.49872178 0.28720722 0.02231674 -0.24286 -0.50999343 -0.17372556 -0.34003228 -1.0523139 -0.43595272 0.5055719 0.062133517 0.48059246 0.21303737 0.5874943 -0.16645364 0.5235045 0.21662407 -0.42685673 -0.15768977 0.5876913 0.32266307 -0.07488982 -0.00665223 -0.79752576 0.58183295 0.6471462 0.063918196 -0.015784312 -0.012399144 0.49534974 0.19673601 0.30081904 -0.067827545 0.38843426 0.17450202 -0.14286229 -0.4051679 -0.749565 -0.33082798
800400 0.6982334 -0.7347021 0.17201883 -0.033553544 0.020786572 -0.17433499 -0.20177715 -0.8471896 -0.7926404 -0.6045189 -0.45107555 -0.13985163 -0.09016192 0.3481803 -0.21911438 0.2585529 -0.79913276 -0.47623396 -0.1601443 0.22083955 -0.40482408 0.21759868 0.35899615 -0.56404823 0.14005703 0.45070186 -0.55499107 0.1835357 -0.349697 0.030621018 -1.0020013 0.086953685 -0.18257599 0.23840593 0.82207865 -0.09035745 0.7036573 0.675174 0.97760975 0.64864475 0.6736002 -0.2770628 -0.9773282 1.0793391 0.5941553 -0.3357102 0.04877059 -0.35909253 -0.7557395 0.27828312 0.2091169 -0.2572573 0.17693993 -0.045299202 0.4913716 -0.18465528 0.8250972 -0.7549301 0.5073095 0.5177563 -0.29929873 0.18784373 0.13495041 0.8102714
202816 0.38827944 0.42387658 0.25759882 -0.0076527684 -0.39171287 -0.48590186 0.19983491 -0.30301392 -0.4087954 -0.33130613 0.068432905 0.32795593 -0.78550833 -0.46465057 0.25972354 0.03502994 -0.39149097 0.22430295 0.4442908 0.63165396 -0.35521513 0.5383582 -0.4812923 0.40724993 -0.28435567 0.8735947 -1.1242205 0.012253203 0.025739105 -0.49600932 -0.71733934 0.09756844 -0.3887092 -0.018975422 -0.6414459 0.14580683 0.7419977 0.31848565 0.4827263 0.54756415 0.20785394 -0.0855451 -1.4380863 0.024833327 1.5007513 0.6730491 -0.5561281 -0.27370387 -0.31143302 -0.15712146 0.5071683 0.6304472 0.28905326 0.6168229 0.31590348 0.69628525 1.1992681 -0.37343797 0.044199094 0.5788809 -0.298336 0.5618122 -0.7002097 0.928109
281292 0.67777395 -0.11231383 0.02696542 0.50245166 -0.14577179 -0.31998658 -0.4155466 -0.51546556 0.081465796 0.21978776 0.2903177 -0.016714942 -0.82584196 0.04964644 -0.15469606 0.13330781 -0.6556172 0.060775153 -0.09292164 1.1089541 0.10411329 0.40985936 -0.51487213 -0.91016895 0.22517306 0.10118309 -0.24012072 0.011930137 0.3983643 -0.2974197 -0.6139804 0.17953584 -0.7454652 0.32604513 0.47428638 0.25846317 -0.061660103 0.49187842 0.67172486 0.2998283 -0.84490377 -0.043422353 -0.25547472 0.094453625 0.5055791 -0.39096814 0.43000185 -0.72142166 -0.59812075 0.31661946 0.35872367 0.14230104 0.42668912 0.24839038 0.8143965 -0.15911016 0.7486246 0.18784444 0.10505551 0.6827944 -0.6696977 0.24291812 0.18262641 -0.4512085
520404 0.5311135 0.4102912 -0.12210823 0.30325174 0.20171487 0.18888088 -0.2412766 -0.9871084 -0.21204922 0.38333446 -0.2737294 -0.05531825 0.38421008 -0.43597403 0.1949087 0.68834525 -0.9146869 -0.2285804 -0.19579376 0.75393254 0.30464464 0.2955073 0.31028756 -0.6136954 0.38966957 0.032357745 0.12600306 -0.096282735 -0.06433711 -0.44180313 0.48350805 -0.5025282 -0.9843369 0.16406143 -0.3553204 0.7694874 -0.32735416 0.18774271 0.73159534 0.5543527 0.5936875 1.1182102 -0.93793833 0.5830333 0.29840535 -0.072355814 -0.9827798 -0.44830742 -1.2556119 -0.67019176 1.2548429 0.43629768 0.8305946 -0.26700908 -0.15797988 -0.5028606 0.58476603 -0.111826144 -0.059448194 0.15750398 -0.5037448 0.17839652 0.68268555 1.4139333
840608 0.19577114 0.97210693 0.022547817 -0.04837521 -0.22971909 -0.65800166 -0.47909272 0.6276703 -0.6010599 -0.100609824 -0.49176332 0.7721615 0.22707966 -0.6018116 0.65028197 -0.06386306 -0.56265366 0.14429495 -0.092086695 1.4022791 0.90672755 0.21951693 0.50485146 -0.20725794 0.025134947 0.5021568 0.024830017 0.11268945 0.69351935 -0.59163445 -1.0305226 -0.1359939 -0.14255497 -0.37361717 0.75752884 0.5609888 0.86208963 0.7594357 0.24297662 0.30271572 -0.0058111986 0.38294855 -0.047456693 0.83510965 0.7127762 0.9348373 -0.5692891 -0.16666023 -1.0213464 0.37253478 0.44845223 0.51446056 1.094167 0.31963733 -0.22664447 0.54801416 0.6384695 0.29136926 0.0011918993 -0.2016158 -1.4136205 0.32091913 0.4825124 0.055832356
280808 0.4343307 0.17968658 0.1850612 0.75081956 -0.87690866 -0.38231337 -0.48214352 -0.45495126 0.2488668 -0.26292944 0.28210193 0.6099127 -0.43277857 -0.33072415 0.59113467 -0.33041632 -0.3595333 -0.418931 0.22186753 0.70332605 0.58342916 0.34060216 -0.6422047 -0.0008267181 -0.07127704 0.12328331 -0.26915815 0.12197506 0.45209762 0.52567077 -0.6504281 0.39211464 -0.13933381 0.35918832 0.28237128 -0.3733438 -0.5447877 0.26213193 1.3868799 0.6463295 0.18531339 -0.056258976 -0.032090444 -0.27300155 0.07257861 -0.30749464 -0.12685856 0.15201429 -1.3982905 0.19177993 1.1808434 0.25010726 1.2989945 0.03567452 0.3461097 0.43960175 0.30985576 -0.28510028 0.48567677 0.21409838 -0.97832906 0.72048354 0.20630766 -0.17043647
28080492 -0.16002323 -0.09419903 -0.07520792 0.20448121 0.22543752 0.0014147749 -0.23775065 -0.14765343 0.5703624 0.073751755 0.23980424 0.78808695 -0.07260286 0.030504862 0.15781263 -0.059017994 -0.44647506 0.17252034 -0.61879414 0.7571078 -0.14923191 0.060917288 -0.68101376 -0.44122928 -0.3005553 0.31636047 -0.6713123 0.2848671 0.0033082017 0.2755486 0.11130745 0.021197531 -0.49622518 -0.02201694 0.45078304 0.005297611 -0.007988688 0.1740504 1.0357802 0.4654417 -0.44029185 0.14105894 -0.80850744 0.12954266 0.26086828 0.054767355 -0.062097743 0.5290042 -1.00651 0.5508342 0.7799055 0.7922478 1.3017924 -0.20470555 -0.09450806 0.45663828 0.2777599 -0.019101229 0.2535107 0.7125358 -1.577045 1.1087158 -0.5273244 0.11009989
924400 0.25136486 0.06497249 0.388236 0.8283175 -0.39205733 -0.30363858 -0.07653422 0.1450783 0.25419682 -0.3066025 0.40780574 -0.07778082 1.1684062 0.18670373 0.35411614 0.5241246 0.13262436 -0.19238451 0.42078435 0.6115069 -0.2580332 0.40649524 0.4020522 -0.07124746 -0.12122119 -0.08221482 0.13325514 0.1379168 -0.22366376 -0.93064284 -0.10353301 -0.8022751 -0.830118 -0.77454954 0.40343153 0.4527607 0.039275676 -0.1303348 0.44735646 0.03960389 0.692286 0.27209514 -0.45459574 -0.009734282 0.5864466 0.07493932 -0.37890244 -0.14149982 -0.78795964 0.40608463 0.37932396 0.45358872 -0.27081078 -0.21141781 0.3324796 0.45083645 0.45299247 -0.45116624 0.7629038 -0.10276062 -0.45151898 0.3991415 -0.2616146 -0.076198906
81604 -0.029571345 0.23452386 -0.86852366 0.39266512 -0.14684525 0.07628867 -0.043493006 -0.04492711 0.1027691 -0.11024435 0.0055236 -0.036003843 0.022641864 -0.3345778 0.36009178 0.96730417 -0.91865855 -0.49417847 -0.47860765 1.1720195 -0.5485623 0.9528331 0.16716358 0.05426727 -0.86304176 0.6059238 -0.15392476 0.026243338 -0.11867103 0.2914304 -0.42628923 -0.38478446 0.06753863 -0.16678335 -0.7601911 -0.29676193 0.9751385 0.24981515 0.98591954 0.112001546 -0.21007141 0.6298021 -0.025951479 0.009850579 0.2704448 -0.17302829 -0.24554987 0.013247392 -1.014568 0.123269156 0.537587 -0.59238887 0.5345049 0.74464417 -0.45408526 0.5122359 1.0066057 -0.62168586 -0.41853142 -0.54409516 -0.62614316 -0.12911728 0.028168486 -0.1582556
569200 0.39930856 0.6032993 0.3422908 0.048976995 -0.64344555 -0.42980024 0.17791022 -0.026535904 0.054879762 0.17476852 -0.57319 0.90195197 0.908197 0.13727868 0.3402015 0.92030257 -0.163905 0.02610631 0.48390847 0.24759074 0.00073318376 -0.08314922 0.19424649 -0.6108514 0.07076464 0.75744927 0.12905762 0.4624602 -0.16821441 -0.60863316 0.62152374 -0.4368544 -1.2912667 -0.008253255 0.41648036 -0.13180758 0.010860087 -0.11174169 0.84773046 -0.4404268 0.10356249 0.23834732 0.067395985 0.2224693 0.37770367 0.38124034 -0.0453138 -0.1340485 -1.4846028 0.33156916 1.018643 0.3787393 -0.30000433 0.3323066 0.5309539 0.0950959 0.21899216 -0.46999627 0.3826119 0.13217226 -0.630601 -0.05804307 -0.64908266 0.22157921
680400 0.105125345 0.07385747 0.24039006 1.1415644 0.021351438 -0.3295147 -0.027357595 -0.2957918 0.108291715 -0.63888645 0.7300653 0.25138575 1.0256855 -0.47675052 0.31682014 0.54441804 -0.17413041 0.10676773 0.34729835 0.55705357 -0.24357776 0.9217167 0.0077320337 -0.10394974 -0.076746844 0.35624507 -0.17748855 -0.057433486 -0.059965007 -0.15519978 0.09136365 -0.56478876 -1.4309242 -0.16146657 0.26040635 0.57004297 1.0132349 -0.3998262 0.2700176 -0.28046474 0.6809622 0.22491723 -0.20025915 0.27875245 1.1726848 0.99705696 -0.5237783 -0.41151053 -0.45565167 0.614775 0.96429443 0.76051474 0.28072277 -0.30345038 0.6067584 0.101559035 -0.03851215 -0.13860406 0.3950505 -0.20200016 -0.88208866 0.11570668 0.20467709 0.3646691
560400 0.3080805 -0.70606005 -0.85112077 0.5783279 0.12530454 -0.17870964 -0.02140497 0.23450913 -0.3286193 0.78051245 -0.27432853 0.43893182 0.7501146 -0.7770079 0.15519378 1.0720813 -0.37904936 -0.23397788 0.3092159 0.96073943 0.24494894 1.3487731 0.23943558 -0.20929338 0.21814266 0.16240445 -0.18519582 -0.046633672 -0.32393295 0.6893325 0.1588852 0.3140922 -0.5841068 0.35212278 -0.039245356 -0.6042872 0.39973408 -0.29214352 1.3267404 0.51912576 -0.021151371 0.18841007 -0.0594833 0.73032415 0.65507704 -0.036753863 0.12132085 0.27071443 -1.2183822 -0.029314477 0.5835973 -0.044472255 0.72214395 0.16716158 -0.62787104 0.6242751 1.3006504 0.43322283 0.34709495 -0.49271056 0.06476112 0.17282467 0.18232585 0.11294332
120808 0.8768839 -0.96860015 -0.27358776 -0.20125952 -0.703889 -0.34174332 -0.052447297 0.3356246 0.00045357205 -0.63163316 -0.5879941 -0.15681858 0.2268675 0.11594371 -0.09542179 0.1076224 -0.56300414 0.6496885 0.51922905 0.42694125 -0.52460605 0.13196361 0.07134084 -0.93265665 0.318751 0.335847 -0.99177825 -0.17000304 0.48831785 -0.13634685 0.20242494 -0.028053243 -0.30432916 -0.60839504 0.06605498 0.607705 0.4873455 0.542645 0.4675492 0.0888283 0.6174877 0.6690486 -0.23299456 0.3909753 0.94343424 -0.46854046 -0.53321654 -0.5390934 -0.7965932 0.93991035 -0.054844074 0.11616031 0.053025134 -0.17585696 0.019242913 0.38831592 0.72103125 -0.28902212 0.668462 -0.06101394 -0.7184572 -0.019683227 -0.37384826 0.17199017
240892 0.9690339 -0.1179681 -0.52364826 0.43520835 0.14570619 -0.2661405 -0.38862905 -0.37886003 -0.24507551 -0.31210682 0.52299166 -0.1472011 -0.045476582 -0.15334126 0.8271507 0.8704792 -0.9669303 -0.22961469 0.0029167696 0.4948423 0.02661316 0.6114412 -0.58830553 -0.31830353 0.17448093 0.41797984 -0.66130537 0.7309445 -0.12533884 0.2784195 -0.79082286 0.28433 -0.4414878 -0.15257128 -0.40578353 0.47899687 -0.37473467 -0.37777057 0.32929406 -0.15603827 -0.19869745 -0.037526954 -0.012954491 0.16555376 -0.706055 0.41720226 0.2738603 0.016675135 -1.0327003 0.14327642 0.30497685 0.47876406 0.39636895 -0.42563727 0.507558 0.025102798 0.3901589 0.1918088 -0.20770654 0.41592127 -0.82296145 0.6658737 -0.3092597 0.24709745
282492 1.5680422 -0.31800047 -0.46790376 0.3721159 0.4676334 -0.38967103 -0.60903394 0.7344145 -0.4621505 0.13815199 -0.50625235 -0.32985082 -0.6211291 -0.16666318 0.1699498 0.09522229 -0.2433401 0.76762336 0.24981745 0.49298707 0.51210827 0.3488988 0.45393947 -0.49081883 0.1453355 0.28731832 -0.5265187 -0.03460119 0.543862 -0.28114012 -0.054416914 -0.20604478 -0.031776242 0.254831 -0.3921763 0.08482161 1.041648 -0.024744753 0.7397036 0.4106617 0.46379772 0.635946 -0.14864962 -0.32863036 0.6171983 -0.18624792 -0.7757357 -0.046499085 -1.0241635 0.5252053 0.23285864 -0.2346655 0.527406 0.13445643 -0.6275893 -0.22517337 0.49453738 -0.51429474 0.2823952 0.23649004 -0.6758809 0.3646475 -0.34572262 0.38037905
529200 0.18814869 -0.21381499 0.48484167 0.4814768 0.21852937 -0.13502488 -0.25923964 0.5857367 0.13548918 -0.037158784 0.011596406 -0.24646476 -0.26048994 0.5973157 0.04888981 0.93023527 -1.0200276 -0.49157068 0.31622726 0.2124075 1.3465664 1.0604396 -0.15334085 0.21711795 -0.06877659 1.1096582 0.46182716 -0.010686294 -0.26519856 -0.0014591619 0.0082583595 -0.6732983 -0.4733261 -0.4774493 0.15913838 0.8026138 0.73660177 -0.2600812 0.42046338 -0.36934632 -0.0810553 -0.09387364 -0.88536817 -0.089310564 1.2627635 -0.024878178 -0.41905737 0.021154756 -0.809863 0.21569474 0.28706443 -0.5052774 0.8829052 -0.1861059 0.12999661 -0.081250615 -0.023848578 -0.8528305 -0.19914302 0.51381296 -0.30042422 0.74158126 -0.15466805 0.35424364
84040808 1.0022408 -0.44618174 0.12167788 0.53579444 0.34096113 -0.08821681 0.33430958 0.6163454 -0.5951143 -0.30690238 -0.4020238 -0.16978629 0.32585827 -0.6682064 0.7003398 0.11292561 -0.43124703 -0.74071676 -0.061443444 0.8536214 0.2924926 0.66811484 -0.25214705 -0.8487479 -0.9766262 -0.22962925 0.24007042 0.685421 0.105476715 0.29453325 -0.21607135 -0.051396135 -0.12993832 -0.60560787 -0.771373 0.08154568 0.6690674 1.1840587 1.1715674 -0.31261432 0.53405255 -0.09779287 -0.34341174 0.4050543 0.7820115 0.4996359 -0.5853206 -0.88829106 -0.13800457 -0.29651222 -0.056029957 0.5159655 0.299081 0.37469772 0.8047135 -0.53204024 0.60135114 -0.36886302 -0.36129707 0.335334 -0.6864732 0.48342934 -0.8277594 0.6131909
840404 1.0038711 -0.31848752 -0.025734814 0.19472308 -0.7005439 -0.36525723 0.16926701 0.59228665 0.1914275 -0.5864371 -0.09911956 0.026064465 0.8559654 -0.0692608 0.77140784 0.23845926 -0.7277589 -0.116620205 0.23528208 1.2204666 -0.12630531 0.44169545 0.7224618 -0.15560697 -0.4397648 0.3639701 0.60195214 0.80625427 0.45386416 -0.021609955 0.40276614 -0.22866353 -0.41479605 -0.45780465 -0.554892 0.3771505 0.27991614 0.62058586 0.6830458 -0.16932301 0.19695754 0.72635144 -0.41408417 0.5393472 0.4894158 0.36942807 0.21347071 0.117931925 -0.50820565 0.6146516 -0.13374965 0.8180794 0.043935698 1.2375171 0.37702817 -0.3035424 0.39732715 0.26214653 0.35696307 0.45131347 -0.43334225 0.74736893 -0.16070788 0.3776344
520808 0.72608155 -0.57391924 -0.031009488 0.82122535 0.82907987 -0.28335786 -0.12268678 -0.39159882 0.78180623 -1.0294938 -0.23277289 0.1581888 0.50187933 -0.88981986 0.11931437 0.3563974 -0.5667935 -0.6965915 0.06823925 -0.05660504 0.24828857 0.6652212 -0.051551443 -0.35179535 0.30493924 0.54919773 0.102481216 0.23530784 0.6948977 -0.43663716 -0.393723 -0.66093624 -0.055229995 0.04628329 -0.45329058 0.6565355 1.1897229 -0.5972659 0.9922313 0.10752907 -0.038354523 -0.15619956 -0.6005102 0.3035742 0.734256 0.86918986 0.063524604 -0.42298713 -0.50183004 -0.06084856 1.2752166 0.67233056 0.35913333 0.15605734 -0.30914924 0.4653866 0.22144254 -0.2366558 -0.022822706 -0.15913932 -0.81728655 0.47627094 0.11793683 0.78189546
83008 0.16217916 0.65488225 0.27860555 0.52450496 0.03144491 0.28000188 -0.20733058 0.28856468 -0.40448403 0.7100639 0.3172094 0.69373834 0.38813314 -0.057119433 0.3618258 0.52014416 -0.38223416 -0.37665224 0.09120733 0.53065884 -0.534217 0.8458923 0.0046071876 -0.56964815 -0.21138248 0.48381227 0.020556053 0.18106076 0.3483057 -0.09105316 -0.31970653 -0.12399414 -0.81476974 -0.5147216 -0.03843719 -0.57790154 0.4237275 0.1819746 1.0882696 0.09075052 0.058728572 -0.04749782 0.18400206 -0.24691622 0.7508023 0.7199845 -0.12153574 0.49533662 -0.96141577 0.79512066 0.51845205 -0.7270627 -0.04478831 0.03458051 0.31985134 -0.15759495 1.1774077 0.18970019 0.6856686 -0.2564696 0.26219904 -0.4011545 -0.37087268 0.20103276
922400 -0.05987654 -0.088759534 -0.14949158 0.014817469 -0.54927963 -0.59646153 -0.1296248 -0.57955366 0.2483022 0.5593017 -0.51751333 0.36030522 0.87169385 0.330935 -0.15554932 0.9217009 -0.43129897 0.075165264 0.028281791 -0.4828474 0.5101967 1.2036014 -0.011221297 0.11432369 -0.49508262 -0.0679919 -0.22699696 -0.2783511 0.405908 -0.15748563 -1.1408243 -0.8756759 -0.3665465 -0.7203985 0.219302 0.64675957 0.37390736 0.77032346 0.952825 0.057271913 -0.1057878 -0.4278503 -0.21174838 0.2266615 0.10146039 0.38024887 -0.83268225 -0.27393332 -0.9172813 -0.56800765 0.10297671 0.3434631 0.6200171 -0.17897284 -0.18706068 -0.008450956 1.2299116 0.15473495 0.033159062 0.111869045 -0.66929007 0.33606553 -0.16378182 0.5165784
282408 1.0642577 -0.20552808 0.26542437 0.19666694 0.42709664 -0.7297325 -0.82488245 -0.24071482 -0.7291681 0.28148198 -0.5391654 -0.18261139 -0.6762794 0.4126152 0.14683351 0.5682797 -0.6531553 0.5874617 0.10296397 1.0704896 -0.012018198 0.058378827 0.42318246 -0.3694604 0.9636711 0.43960604 -0.12411179 -0.58702385 0.04675259 -0.31001902 -0.2811711 -0.32742652 -0.4353838 0.64308983 -0.26810417 -0.29480493 1.0680431 0.13121225 0.42633006 0.88107145 -0.058999527 0.3143533 -0.5619042 0.09879694 0.49570465 -0.20931439 -0.2772575 -0.4741513 -0.73864156 0.6759703 0.54658544 -0.14418669 0.22180153 0.49012637 0.3052576 -0.017204206 0.20046654 -0.2804862 -0.029408526 0.5739188 -1.0279325 0.1753834 -0.41824073 0.08600046
840492 1.0592284 0.047651887 0.29413655 -0.13195017 -0.21356486 -0.27611136 0.05352905 0.21056966 0.06796397 -0.6261317 -0.85611224 0.088130385 0.4449104 0.20101064 1.0369416 0.17237186 -1.0648298 0.29808798 -0.22308636 0.34394848 0.2965835 0.5178474 0.46421376 -0.37002313 -0.5429384 0.1296847 0.5465061 1.3242588 0.25879702 0.7124027 -0.21050568 -0.78146696 -0.26715726 -0.24716021 -0.18491971 -0.09697271 0.19535711 0.71795833 1.0776513 -0.03549109 -0.15283959 0.7687973 -1.2391759 0.5698261 0.6688144 0.462258 0.24335024 -0.53999066 -0.34697407 -0.17448859 0.06868247 0.39095557 0.67251647 0.56278485 0.6540097 -0.036502447 0.096354045 0.32398647 -0.13942118 0.35756254 -0.76287067 0.77779007 -0.29236782 0.43100148
40400 1.2791432 -0.356141 -0.6825497 -0.06397412 -0.15506974 -0.25072703 -0.76599514 0.3610327 -0.18255849 -0.3182773 -0.53687125 -0.086309835 -0.044346098 0.044593796 0.5722811 0.6717084 -0.41660613 0.15831205 0.4810707 0.67415714 0.8067788 0.32294852 0.24764621 -0.63526964 -0.30366465 -0.37579277 -0.7411309 -0.11513069 0.80968124 -0.22519533 0.11409823 -0.25117016 -0.40513185 0.08507404 -0.17008978 -0.2634868 0.5195904 0.08579695 1.0150986 0.45241013 0.16171792 0.4786732 -0.5411574 -0.6665646 0.86856985 0.13908696 -0.78997046 -0.115424365 -1.3912328 0.3288951 -0.4743546 -0.11250294 0.6475203 -0.24220741 -0.6153225 0.03267181 -0.04232239 -0.39765 0.03224308 0.38910562 -0.42294675 0.1359572 -0.078623675 0.67697966
81832 0.48705393 0.52618045 -0.046173748 0.29228193 -0.40836576 -0.99441504 0.3386343 -0.32407355 -0.038117442 0.16737442 -0.33680952 -0.27388915 -0.0039492142 -0.5350295 1.1385703 0.4813164 0.062027093 -0.13160598 -0.416058 0.50781935 -0.15220459 1.1535183 -0.16599566 0.098178364 0.1907626 0.33454463 -0.045827422 0.17325169 -0.047085192 -0.11956235 -0.14428075 -0.26675123 -0.30887914 0.26578873 -0.4629019 0.31907216 0.030054653 0.44697618 1.5891501 0.6844977 -0.18273582 -0.35143763 0.009635066 0.8342067 0.74182457 0.5176541 -1.0502396 -0.105248146 -0.21212219 1.0443512 0.35052827 0.18120918 1.0067426 0.17338362 -0.5004543 -0.40843388 -0.82838774 -0.7933933 0.15492545 0.51152635 -0.44939533 0.3336598 -0.4540472 0.6097161
241292 1.1705744 -0.52108246 -0.5789567 0.32254562 -0.048056576 0.18035083 0.04202898 0.06487273 -0.74095494 -0.22456735 0.18055588 0.122130066 0.030949501 0.23393379 0.9290825 0.84598917 -0.7277126 0.05094747 -0.20141235 0.30192515 -0.6261336 0.5909862 -0.39385024 0.010137205 0.48217237 -0.06428654 -0.80440176 0.53344923 -0.17378762 0.121210806 -0.85257953 0.09010591 -0.3417109 -0.5292337 -0.21922596 0.93665254 -0.011625915 -0.18433736 0.44938245 -0.08403658 -0.33312652 0.37309852 0.29698884 0.4169443 0.1819419 0.7579334 0.09506766 0.08405267 -0.76187444 -0.45937032 0.77217615 -0.36438403 0.53475803 -0.22868076 0.18249549 -0.12603235 0.14932421 0.446321 0.5309692 1.0051161 -0.9401733 0.060094357 0.020030318 0.6037172
840412 0.72904193 -0.26814237 -0.16323239 -0.34549507 -0.2669771 -0.29277742 -0.3891436 0.29365078 -0.2997933 -0.33069918 -0.30124456 0.07988026 0.77790374 -0.30914074 1.1114467 0.08022276 -0.64372784 0.4199829 0.4945453 0.6322744 -0.2770963 0.79730445 0.03755115 -0.63159907 -0.2604403 -0.02464375 0.8125961 1.0075668 -0.034100212 -0.22311968 -0.16584589 -0.504455 0.24804863 -0.16385067 -0.6520513 0.22481266 0.67411494 1.0245842 0.97663796 -0.13074486 0.1326404 0.15165657 -1.0030358 0.22984143 0.84028304 0.7908829 0.3530504 -0.31384894 -0.67627525 -0.07545111 -0.28237045 0.9120342 0.612246 0.7224306 0.53283167 -0.3577685 0.11832095 0.34745637 -0.093169324 0.7538183 -0.61333114 0.9920813 -0.07397147 0.32883167
28160804 1.0497733 0.07143895 0.21299563 1.0740775 0.120353505 -0.63121724 -0.52712744 -0.22209886 0.18886802 0.5530501 0.23485708 0.16214244 -0.5843994 -0.28630945 -0.38651413 0.55627614 -0.5855154 0.49520943 0.04791689 0.705337 0.11896314 0.8145872 -0.7368327 -1.0093094 -0.76676893 0.024265025 -0.13893104 0.53114253 0.41393054 0.349007 -0.12287397 -0.33873907 -0.06676579 -0.34757075 -0.32468987 0.3490517 -0.5564406 0.49563247 0.9462343 0.302783 -0.17635262 -0.10953233 -0.2958937 0.50730324 0.6933185 -0.31814584 0.22637129 -0.6744071 -0.2437405 0.641238 0.8498786 0.17668468 0.21823348 0.4678628 -0.07086122 0.18957691 0.518895 -0.44658518 0.76840943 0.3749587 -1.0519528 0.12311447 0.8256158 0.33687258
201600 0.6215237 0.0013976789 0.5270366 0.013648441 0.8408853 -1.0586262 0.4814524 -0.0920453 -0.8976078 -0.4941347 0.24345961 0.4840261 0.48897162 -0.55209 0.5763087 0.4167018 -0.14109263 -0.6345528 0.87623805 0.53156084 0.22573331 0.9545869 -0.2427357 -0.3777154 1.0915693 0.51650554 -0.46081996 1.0003116 0.60134166 0.68282366 -0.35498005 -0.48171297 0.3326955 0.18481526 -0.10537354 -0.1370032 0.41057003 1.1146038 0.47439113 0.45474783 0.17222926 0.8064567 0.09880872 0.53781617 0.576737 0.09653142 -0.82404697 0.086988255 -0.39167312 0.28991216 0.705561 0.55257756 1.1790845 0.75166005 -0.022768728 0.09066717 0.9296782 -0.008585833 0.4511241 0.13095246 -0.41084173 0.21982045 -0.28777868 -0.081772014
402400 1.1050106 -0.9235717 0.36129177 -0.35656288 0.31777695 -0.04996772 0.39849952 -0.6721492 0.1713151 -0.31590328 -0.8233529 1.0469327 0.9125899 -0.13645221 -0.27239183 1.3533858 -0.8927861 0.107966326 -0.4671463 1.1631546 0.545617 1.489546 -0.3317479 -1.2491962 -0.44619194 0.14749241 -0.66568565 -0.05346301 -0.040104385 0.009446044 -0.6848415 -0.57408017 -0.4869557 0.4483271 0.043852743 0.41738683 0.1610213 -0.102214076 0.4808614 0.66520846 1.0009813 0.08646062 -0.38865122 -0.5525149 0.3284795 0.12699215 0.13267156 -0.3975358 -0.847285 -0.73212487 0.37983587 -0.42054144 0.5824916 0.37725276 -0.13437393 -0.120484374 -0.2827531 -0.28531358 0.5352204 -0.00305258 -1.7476889 0.38468012 -0.72515774 0.24183618
28160428 0.7410812 -0.7706791 0.44785538 0.8637765 0.41377658 -0.010886145 0.95078444 -0.7725078 -0.12437508 0.107320316 -0.75116694 -0.3889848 0.042489003 0.021807691 0.40089816 0.17043816 -0.98190236 0.15966722 0.1744469 0.66133946 0.6138714 1.4537688 0.039378062 -0.19159384 -0.6186725 0.495379 0.02022811 0.532123 -0.18430541 -0.083581716 -0.47556832 -0.47476068 -0.0056296936 -0.42957553 -0.0502487 -0.3126648 -0.8270361 0.86645377 0.133849 0.4567812 -0.28849667 -0.19740489 -0.58178204 0.37680817 0.76693374 0.64836895 0.25875914 -0.31963342 -1.4165457 0.98137 0.39966002 0.5605936 0.5959706 0.16740972 -0.3215385 0.41944018 0.846579 -0.7570337 0.2717029 0.033675116 -0.54496557 0.08231402 0.5989101 -0.15054941
201218 0.45455542 -0.77848804 -0.31038046 0.6619309 -0.33639506 0.20351557 -0.0009159904 0.08473541 -0.21421619 -0.19089708 -0.17326859 0.63552 -0.3350695 0.83579487 1.1193694 0.62839234 0.2307307 -0.13107142 -0.30751938 0.25270948 -0.26696274 0.41529328 -0.4362133 -0.80245525 0.5913746 0.095101304 -0.2531163 0.6237305 -0.15926473 0.29017645 -0.39463422 0.0021719432 -0.23896196 -0.37954754 -0.03833156 0.32014835 0.3812282 0.1353531 0.87740177 0.14929369 -0.5829275 0.52641934 0.02116278 0.6624365 0.18730849 0.56603235 -0.46574226 0.38082135 -0.8927943 -0.7375276 0.95964456 -0.37368155 0.5518713 0.16697921 -0.42508763 0.45043784 -0.08655122 0.30951762 0.26259947 0.94725835 -1.029197 0.51816297 0.2973175 0.5886554
682000 -0.27416608 0.33855462 0.7795189 -0.4557222 0.04760247 -0.9259848 0.32306397 -0.3018813 -0.23539262 -0.03895036 -0.23263575 -0.40992093 0.018954491 0.4271974 0.46010652 -0.09189577 -0.5300119 -0.2653284 0.48814517 0.9189644 0.044973794 0.34111068 -0.22006099 -0.74225247 -0.2478516 -0.23905496 -0.3105731 1.0349051 0.42024815 0.077169225 -1.152204 0.10205827 -0.85338265 0.2479585 -0.39628884 0.03236413 0.3307851 -0.39797452 0.9074193 -0.35564566 0.92369765 0.2784115 -0.27026105 0.23948821 0.73126876 0.50158095 -0.24121654 -0.36489418 -0.82679933 -0.17758207 0.8310762 -0.24454491 0.56137615 0.013096462 -0.91591674 -0.6832089 0.25012648 -0.31961107 -0.29691577 0.07324056 -0.8639379 0.5249572 0.1867225 0.4064349
840408 1.087272 -0.5398029 0.40473676 -0.13207266 0.14777088 -0.51400584 0.3039721 0.5338082 -0.49634942 -0.29908374 -0.40252775 0.15703493 0.2672311 -0.3454979 0.8728445 0.51546425 -0.69472015 -0.21201175 -0.09107702 0.88462955 0.43350834 0.5217987 0.08324157 -0.43121514 -0.9506159 -0.01015148 0.38056728 0.7255376 0.067972794 0.1096735 -0.0970164 -0.41966107 0.14718564 -0.72981846 -0.3060129 -0.021318272 0.6726371 0.9156764 1.0500543 -0.30979052 0.13138042 0.14590259 -0.33826703 0.7131105 0.68966436 0.7067462 -0.019337645 -0.86994874 -0.31268087 0.04068509 -0.31668168 0.7577554 0.04966316 0.4775398 0.6341705 -0.41930243 0.25004467 0.26998112 -0.13675582 0.3997618 -0.43219593 0.9518901 -0.4440374 0.76533777
520200 0.68622035 -0.46514216 0.23052609 0.27514198 0.6397986 0.122137316 -0.38517734 0.6561045 -0.13850147 -0.41794866 -0.075163834 -0.36883906 -0.16973332 0.3059021 0.32156438 0.663469 -0.6337487 -0.1770828 0.20296024 0.08180379 1.2430265 0.9909056 -0.3414213 -0.12796426 -0.4822794 1.0076852 0.29391313 -0.4068151 0.30970702 -0.09281237 -0.18517049 -0.35440895 -0.42629966 0.3206168 -0.13866334 0.17153724 0.46927938 -0.43465388 0.47475946 -0.22572611 -0.1386734 0.15445368 -0.798753 0.29715237 1.3590108 -0.010265148 -0.78287154 0.41013113 -1.3714168 -0.055055987 0.087147005 -0.6627165 0.98985434 0.08563253 -0.035497185 -0.2935859 0.15875328 -0.44980893 0.22822274 0.025452549 -0.39964372 0.423151 -0.27398917 0.61875474
401200 0.47907326 -0.36001298 -0.58008265 0.34285632 -0.49109754 -1.0145824 0.48953533 -0.6656649 -0.42207587 -0.24465296 -0.24436979 0.28596002 -0.041517384 -0.38026494 0.18077949 0.47994605 -0.96735436 -0.9763093 0.78505665 0.8473786 0.08936869 -0.121021904 -0.06868263 -0.80088514 0.724017 0.47284132 -0.6068703 -0.3960202 -0.6627187 0.12299502 -0.8936512 -0.108403996 -0.012296989 0.26869217 0.3097272 -0.28203812 0.6003179 -0.006825261 0.38959926 -0.4115188 -0.119927414 0.19993258 -0.57353765 0.5529857 1.1279093 0.112595245 -0.06354423 0.2648814 -0.4709389 -0.06791898 -0.16648112 0.22909823 0.072389945 0.1472595 0.33049178 0.0829154 0.51715964 -0.7973455 0.6809876 0.6082159 -1.0764954 0.16514435 0.8520883 0.46872428
80800 -0.0059166253 -0.1570398 -1.6057936 1.4886514 0.10561859 -0.2939716 0.2183286 0.04443085 -0.3984182 0.2168822 -0.52556264 -0.33670786 0.9415295 0.3510862 0.8781756 0.36958402 -0.41311276 -0.56786025 0.55427253 1.4737095 0.010942478 0.5173611 -0.43937317 -0.113644555 -0.48391324 0.88786095 0.2607356 1.4481215 -0.41049227 -0.8735305 -0.76685584 -1.0858063 -0.028583651 0.47885358 -0.12508768 0.4991084 0.0894073 0.20591094 0.32060635 0.30346575 0.32231644 0.93561 -0.7504572 0.9319741 0.8399907 0.55849075 -0.098926075 0.73868406 -0.9023687 0.58676636 0.6624765 0.46412647 1.0278766 -0.5883109 -0.69168466 -0.29174793 0.70053965 -0.35389194 0.050757624 0.8851009 -0.7355262 0.3323322 0.06422359 0.66972697
120400 0.7830644 -0.27336738 0.13508345 0.020937439 -0.03433515 -0.9384864 -0.53508055 -0.89803535 -0.77356094 -0.7211791 -0.28723118 -0.11524701 0.39120322 -0.54627156 -0.4638896 0.4990497 -1.3586276 0.17803684 0.10782768 0.59243214 -0.46317232 0.14673088 0.5772907 -0.5864652 0.55221856 0.24666774 -0.40456897 -0.80275905 0.057299487 0.14373107 -1.0476903 0.5705996 -0.3543188 -0.94316053 -0.056424506 -0.17247958 0.22915915 0.22594662 1.3218261 0.49041736 -0.019949172 -0.07583093 -0.7553421 0.87831795 0.9211134 0.26800868 -0.63992864 -0.013276512 -0.48439825 0.085183725 0.17273594 0.7409888 0.8501818 -0.15049465 0.43439993 -0.228359 0.024023227 -0.34472924 0.17597067 0.4890628 -0.15733905 0.26774797 -0.101483226 -0.10029215
8120612 0.8357291 0.15402405 0.3273256 0.3482809 -0.635228 0.33513647 0.27915183 -0.91696584 -0.29044983 -0.31366688 -0.50988007 1.0437714 -0.07594961 -0.45632225 0.535603 0.6782722 -0.43321693 -0.6833626 0.25425154 0.65738595 -0.1949724 1.1159678 0.48162273 0.32771394 -0.20357904 -0.17440788 -0.6543328 -0.17281662 0.012545957 -0.39180884 -0.08395806 -0.4433597 -0.5317064 -0.622935 -0.926105 -1.0135462 0.4589323 0.28091443 0.84556127 -0.35327923 0.034745716 0.30687487 -0.58011895 0.2444783 0.41569775 -0.29167047 0.7256845 0.31595904 -0.7922133 0.5485499 0.22885966 -0.41418725 1.3297185 0.48047155 -0.1691692 0.37763417 -0.055341907 0.17483789 0.06822751 0.44552866 -0.71504676 0.726607 -0.45918512 0.9322997
8180808 0.29424635 -0.6898411 -0.068718605 -0.048836563 0.24648273 -0.9848409 0.39898986 0.21557313 0.5478329 0.07318992 -0.34877303 0.16935635 0.09387938 -0.80897325 0.9194126 1.1191545 0.40603095 -0.18108107 -0.72111267 0.4599444 -0.47858757 0.95182693 0.109509505 -0.076567195 0.39805907 -0.15841489 -0.2012985 0.26235634 0.23202582 -0.507249 -0.39961088 -0.15688664 0.05227111 0.16807738 -0.20383044 0.3083175 0.06439005 0.31005463 1.1299677 0.29922384 -0.13109404 -0.31088734 -0.121579565 0.887274 0.8448891 0.102264605 -0.5792854 -0.9012374 -1.2584839 0.11996926 -0.08445854 -0.28185943 1.2003647 0.62140805 0.6760324 -0.17049053 -0.24603793 -0.76044756 0.095810205 -0.50661194 -1.3060312 0.7058473 -0.5417524 -0.016401362
83092 0.23051985 0.05448277 -0.61444855 0.36266202 -0.14629522 0.50755125 -0.017105514 0.40833303 0.14035429 0.19457518 0.0150555335 0.88243306 0.09403663 -0.37110353 0.34338287 0.98089737 -0.4803574 -0.86513877 0.4754487 0.22953092 -0.74647635 0.42329428 0.3166086 -0.06405613 -0.025072875 0.5279033 -0.060707584 0.08783042 0.13225615 0.5546388 -0.304838 -0.5396546 -0.07977861 -0.6387785 0.04486391 -0.9408426 0.62420106 -0.20335908 1.3670658 0.70891917 -0.01812751 -0.31209132 -0.79427105 0.06067959 1.0024107 0.25874072 -0.31130126 -0.13542162 -1.1654261 0.5045402 0.5268583 -0.38728747 0.047614947 0.23163241 0.25404388 -0.265475 0.9347411 0.13790387 -0.3199257 -0.11438211 -0.17729595 -0.36099714 -0.059677094 -0.1764169
81228 0.645395 0.22738107 -0.19029348 0.49102277 -0.7159239 0.12661067 0.4116439 -0.22848986 0.39854372 0.031977046 -0.26542324 0.103017986 0.34485838 -0.19421694 0.22157548 0.40774545 -1.0126824 -0.7689343 -0.33424538 0.9441451 -0.54774904 0.91296655 0.5231127 -0.10747252 -0.599415 0.66573316 0.1883167 0.49940553 0.26745093 0.15559484 0.22095026 -0.8106077 0.20589708 -0.21010037 -0.45780897 -0.58995044 1.1735654 0.40637508 0.8363956 0.056253847 -0.07418081 0.61667806 -0.058634833 0.23427878 -0.20925869 0.0040847673 -0.09843493 0.4975123 -0.6150951 1.0131994 -0.06999935 0.14172517 0.25549826 0.8936723 0.07675417 0.1095083 0.3500591 -0.018278627 0.31008846 0.09161345 -0.67506135 0.76116043 -0.033323474 -0.32819682
283292 0.4183422 -0.2569913 0.24354854 0.70653474 -0.33376655 -0.105955385 -0.51156425 -0.8581031 -0.07864955 0.20051901 0.70908934 -0.30976695 -0.22683345 -0.073496774 0.3503697 0.36566982 -0.4068868 0.2886328 -0.40707868 0.71102005 0.13945396 0.10212345 -0.7059531 -0.32961068 -0.041784648 0.15453745 -0.7268562 0.5043901 0.5740333 0.32869914 -0.047573123 0.17612952 -0.15875153 -0.05376448 0.5326408 0.18714762 -0.4338115 -0.010168516 0.839505 0.2797978 -0.15778974 0.08834209 0.14403185 0.2730411 -0.17295434 -0.23012587 0.38370755 -0.053266313 -0.93731314 0.30761755 0.5220053 0.14778256 1.0176187 -0.42822173 0.5411127 0.34060803 0.53329104 0.3473019 0.21515572 0.35306242 -1.47384 1.0264051 -0.12535764 -0.28123802
562800 0.46746156 -0.16591789 -0.6372046 0.42912674 -0.03393215 -0.0146613 0.1774935 0.07319162 -0.34770313 0.43707958 -0.23050858 0.19106068 0.12716058 -0.5936771 0.04222835 1.0053347 -0.23339975 -0.6288258 0.10862131 0.6916534 0.20513035 0.76557654 0.055013135 -0.4627206 -0.5016911 0.7246419 0.067393616 0.3032899 0.40092897 0.44573948 -0.014677057 -0.14107965 -0.5643675 0.0014293132 -0.06546309 -0.8083652 0.6810029 -0.46786946 1.0909171 0.22885302 -0.1655291 0.17643733 0.19830236 0.3370364 0.95799786 -0.2547938 -0.3682382 0.68339103 -1.1377527 0.29535338 0.3086823 -0.8182115 0.2803111 0.17943284 -0.4610989 -0.016175121 1.0357019 -0.026597457 0.13052802 -0.88374126 0.061926182 -0.10032529 -0.09878208 0.035432655
720000 0.85909206 -0.035494454 1.044201 -0.2447759 -0.3123259 -0.58831275 0.39552858 -0.11189927 -0.80999446 0.50518274 -0.76718265 0.7014114 -0.16613223 -0.08263883 1.0209556 0.9997748 0.1758758 0.18412666 1.0233508 1.2137309 -0.07330481 0.7387959 -0.64623576 0.4543255 -0.49479666 0.31004122 0.029941676 1.2508425 0.511853 -0.48652947 -0.20835954 -0.027515005 -0.119210556 -0.08796805 0.058191724 -0.03043245 0.99954885 -0.23662448 0.50120324 1.0533284 -0.7582772 -0.07646597 -0.9678665 0.71287996 1.0063088 -0.15150537 0.19768849 0.121171 -1.4892824 0.23819394 0.6350035 -0.28398186 -0.09430628 -0.7425085 0.43045083 0.6817365 0.44966808 0.068360426 0.20085153 0.32293633 -1.6211721 0.6310576 0.10354352 0.71000445
861204 0.7692844 0.24447544 0.52535594 0.07845125 -0.43702763 -0.61758405 -0.026189033 -0.12451296 -0.4166496 0.14631912 -0.42714903 0.31511378 0.20937318 -0.8263992 1.0450442 -0.4779873 -1.2003073 -0.7066761 -0.4577274 -0.17284666 -0.44568658 0.58006936 -0.39169043 -0.544097 0.27554965 0.33012483 -0.25954843 0.0028259489 0.9036561 -0.36093512 -0.11714017 0.05066453 -1.3673168 -0.98780715 0.8701995 0.42592716 0.2757526 0.62727684 0.9175917 0.266881 -0.5481177 0.7663953 -0.80702686 0.08553635 -0.22350264 0.90145224 -0.57583797 -0.40772325 -1.076647 -0.013232903 0.21906926 -0.3393042 1.147052 0.21219456 -0.6393804 -0.40364107 0.81598085 -0.73348254 -0.23163882 0.4122718 -1.0922847 -0.06229144 -1.2173728 0.9947009
289200 0.71226346 -0.57693446 -0.26888123 0.4092877 -0.08068111 0.43618008 -0.021019246 -0.53359574 -0.5420406 -0.40949392 -0.22210951 0.18447024 0.067142785 -0.15168697 -0.31609282 0.5074961 -0.8575084 -0.13090655 -0.08071214 0.6783473 -0.50902474 0.8483728 0.1484238 -0.4273129 1.4237398 1.3380365 -0.27302268 0.19658017 -0.07361125 -0.09728864 -1.1699592 0.4049917 -0.50289494 -0.22044447 0.5016009 -0.25221616 0.17231238 -0.47742966 0.026279291 0.57823604 0.21507041 -0.23646125 -0.58402795 0.28394726 0.49078858 -0.45707822 -0.752313 -0.44249776 -0.3941237 0.38195685 -0.15774941 0.7697576 0.82717156 0.0052311397 0.19403026 0.2268861 0.47275713 -0.20970601 0.55814105 0.45179838 -0.80485994 -0.011349578 -0.59183806 0.8400242
81200 0.17031664 0.36621657 -0.02862685 0.37536258 -0.49130324 0.21146034 0.2447266 -0.84260064 -0.15016185 0.10770142 0.1091697 0.63785964 0.080160074 0.08370433 0.1800623 0.5902093 -0.638043 -0.699237 -0.08852763 0.60295016 -0.75822324 0.9926282 0.4881498 -0.10865713 -0.76307786 0.6752458 0.17363848 0.24803655 -0.050505962 -0.21606387 0.0936301 -0.78861535 -0.03829431 -0.24007618 -0.47188258 -1.1261475 0.56705445 0.049133286 1.4137267 -0.092017844 0.25686792 0.6128598 0.31587797 0.36661336 0.42804158 0.13187127 0.06481389 0.33717918 -0.3959534 0.9163004 -0.10959883 -0.14802639 0.5050851 0.3353703 0.024614211 0.05718284 0.5365287 0.109220445 -0.07415101 -0.47736603 -0.48585415 0.41298714 -0.32929382 -0.01179079
240608 -0.012163203 -0.34209442 0.028217094 0.5863904 0.06391907 -0.12943725 0.25441557 -0.25840425 -0.50665605 0.18187417 0.34662652 -0.3134859 0.90533465 0.22073938 0.007580017 0.5635954 -1.2193533 -0.5731295 -0.102784716 1.3367149 0.43650532 0.564448 -0.25290444 -1.0477161 -0.40269455 -0.09875836 -0.7188199 0.3918907 -0.012699482 -0.13327776 -0.22523774 0.4230297 0.33381474 -1.02445 0.8211754 -0.7028069 0.43501586 0.09124916 1.282096 -0.2981545 0.12500864 0.7096348 -1.2049878 -0.4194166 0.48037913 0.8993101 -0.37183765 -0.5741648 -0.7583926 0.15896076 1.0696243 -0.024564443 0.50078267 0.66433275 -0.69060683 -0.4886974 -0.22854011 -0.40583605 -0.49098945 0.61051667 -0.6603172 0.16436438 -0.260682 0.24587785
282800 0.86115664 0.28290233 0.42139602 1.0832099 -0.10616318 -0.6001456 -0.8282065 -0.4008147 -0.12634969 0.35876283 0.46133876 -0.07242331 -0.5538556 -0.39565054 -0.15806647 0.51951224 -0.5577826 0.369452 -0.10129048 0.85636234 0.16543108 0.48090062 -0.7908719 -1.0709586 -0.24006322 0.059326384 -0.29979372 0.52114433 0.10545768 0.16052853 -0.0331165 0.037418988 -0.3999839 -0.02161595 -0.01723796 0.14721453 -0.22609054 0.44685712 0.7421061 0.07488897 -0.5136116 0.05050768 -0.12305253 0.26008254 0.5141568 -0.53223926 0.19031462 -0.8942096 -0.37306392 0.4424593 0.5470245 0.08567825 0.7064166 0.469721 0.3362759 0.29477158 0.4657244 -0.13957979 0.6331323 0.5247673 -1.0816603 0.05816905 0.724635 -0.18675202
881600 0.35144082 -0.44702947 0.7574415 -0.4808258 -0.7741436 -0.174133 0.060177792 -0.7906001 -0.18447746 -0.3947465 0.10366204 0.5048346 0.5486338 -0.614041 0.38937077 1.2462586 -1.2092588 0.46800718 -0.23665582 1.3364315 0.1582472 0.67705506 -0.15926816 -0.6095011 -0.04472102 0.17189783 -0.18092965 0.7976784 -0.009755052 1.6644552 -0.08744601 -1.0739592 -0.47776094 -0.021470182 -0.28839767 0.7574687 0.64668435 0.7039114 1.2091 0.28004938 -0.31821734 -0.1905938 0.100273214 -0.1523791 1.0769889 0.4127304 0.13029593 -0.3325888 -0.90251315 0.36827624 0.28098708 -0.36502722 0.120419115 0.26252663 -1.0244596 0.56383497 0.51533216 -1.434277 -0.31346965 0.9588615 -1.0893139 0.8651224 -1.155772 -0.29030928
8180820 0.20741558 -0.15407072 -0.5510534 -0.25404945 -0.4627844 -0.8998756 0.67747164 -0.17986006 0.38439763 0.059278946 -0.04275774 -0.51867014 0.30109504 -0.99863696 1.0312474 0.4492012 0.45827693 -0.02785382 -0.25056237 0.71308446 -0.6189009 1.1958601 -0.39566222 -0.4273371 0.45205492 -0.26624542 -0.10915777 -0.05073669 0.29700723 -0.09287475 -0.27700937 -0.6534819 -0.29806703 0.26264971 -0.73870426 0.29761907 -0.2665124 0.260433 1.2143575 0.4248223 -0.14219466 -0.08719037 -0.32200244 0.8800843 0.69060665 0.3339263 -0.94122124 0.15540892 -0.6577731 0.76352924 0.34344625 -0.26398042 1.0104796 0.2837216 0.062004372 -0.41352636 -0.22180706 -0.7071594 0.15415882 0.18718684 -0.9502149 0.503414 -0.43665612 0.15409775
923200 0.44612727 0.21800551 0.23784383 0.6699832 -0.152197 -0.51921576 -0.24475528 0.4719204 0.17519557 0.28773215 -0.6991711 -0.027161215 0.04176636 -0.8395706 0.45094827 -0.05460779 -0.39569283 -0.11471115 -0.37904948 0.97640216 -0.078151114 0.759945 0.006891593 -0.15490367 -0.3418801 0.08971168 0.051370997 0.2224692 -0.34659642 0.40548533 -0.799143 -0.5029063 -0.92699844 -1.1959213 -0.49305722 -0.60358465 0.71571934 -0.22623256 0.26643878 -0.42443419 1.1473496 0.21356477 -0.95103985 1.0310549 0.27872178 -0.25611433 -0.4468359 -0.787461 -1.9385843 -0.74072814 0.83207303 1.0087773 0.9663381 0.34586853 0.3307874 -0.8133645 1.59521 0.0611647 0.6628783 0.495024 -1.3158532 0.2604726 0.88306636 0.24055731
521600 -0.1364047 -0.825452 -0.08835155 0.18486103 -0.17159502 0.20816441 -0.026417222 -0.1282208 0.17256002 1.1071066 -0.5516917 -0.655783 -0.05055044 -1.3282022 0.17331217 0.9111528 -0.5435409 -0.2895201 0.3102139 0.88022375 -0.13922425 0.9975906 0.8489006 -0.21323095 -0.5133522 0.7855191 -0.27713355 0.354917 -0.24524567 -0.37736067 -0.94992733 -0.28174347 -0.0802585 0.019177707 -0.38386318 0.5758725 1.2200171 0.43913427 0.67383206 1.1861622 0.60319597 0.27936882 -0.520771 -0.37096554 0.43550038 0.44001567 -0.31497824 -0.4485059 -2.3208032 0.61807597 0.27081868 1.002146 1.4400451 -0.22548337 0.53270817 0.43089116 -0.08298406 -0.46030736 1.2069347 0.7397729 -0.27967578 -0.13951574 -0.25797606 0.60125625
680800 0.24957848 -0.43045887 -0.117727205 0.32748416 -0.8220346 0.1807338 -0.17219055 -0.5050456 0.69183517 0.0019564945 -0.19987279 -0.38843837 0.5172097 -0.31805763 0.567099 0.21714069 0.51620364 -0.17475699 0.24565333 0.8242621 0.31667498 1.5468012 -0.66988206 -0.9585582 -0.7011345 0.6127623 -0.8979437 0.7000072 1.0526792 -0.26952127 -0.308839 -0.5040013 -0.7420732 -0.8317344 -0.4818465 0.4936449 0.3491751 -0.44323713 0.70302564 1.1219827 0.2056126 0.7471947 -0.29381564 0.2661982 0.5069394 0.8836035 -0.48170185 -1.2889265 -2.0578508 -0.52768147 0.89965105 -0.1607422 0.7546815 0.50828546 0.59577507 0.43069765 0.34580582 -0.27253035 -0.2272124 0.008199466 0.2068353 0.10515983 -0.75110096 0.7276327
28160824 1.4871944 -0.33179796 0.10326562 0.47338372 0.16960649 -0.35124725 -0.3212817 0.04205991 -0.410612 0.23528968 -0.18977818 -0.10507165 -0.49491954 -0.06417673 -0.27012056 0.07920645 -0.75887835 0.85537106 0.44848344 0.30906075 0.050981693 1.1642209 -0.4138795 -1.077495 -0.11541278 0.1834014 -0.30311173 0.46551496 -0.047229204 0.0054815803 0.48621953 -0.56856126 0.21692346 -0.3299957 -0.9056589 0.41884044 0.16794325 0.7407449 0.87025845 0.024717944 0.3363156 -0.023526428 -0.12620315 -0.016119033 1.0559516 0.08129072 -0.36643815 -0.24332592 -0.76702505 0.7145913 0.8081222 0.4792026 0.36766842 0.122206084 -0.6055341 0.740641 0.38941935 -0.4387331 0.8505534 -0.29055476 -0.87048876 0.124546535 0.8793187 0.11990794
760000 0.8394025 -0.69121504 0.6827633 -0.20636837 -0.044326983 -0.87803656 0.57136226 -0.7096194 0.2670023 0.6047121 0.31590325 0.23347284 0.23441766 -0.94444937 0.95899224 0.3741164 -0.2121444 -0.38615716 0.79275566 0.39408258 -0.09137505 1.035844 -0.41537014 0.15783401 -0.5781839 1.2180089 0.19083452 0.4818485 0.1541019 0.8221223 -0.85178924 0.1403929 0.35111448 -0.21758465 0.068277225 1.0369631 0.8390998 -0.008114655 0.8440742 0.12530604 0.69224566 0.9161721 -1.3320684 0.19817616 0.28192213 -0.22986451 -1.4042445 0.09929408 -1.4424822 0.15423223 1.2148798 -0.2746855 0.75931877 0.32272395 0.02960937 -0.44030008 -0.081074156 0.5607343 -0.23780085 0.77584034 -1.3552532 0.2325814 -0.3797076 -0.33347926
12120812 0.20386739 -0.8225451 -0.6811826 -0.0569779 -0.7780321 -0.39765573 -0.0053771185 -0.3629982 -0.40324637 0.14630471 -0.50577337 -0.7514274 -0.12483077 -0.5288186 -0.09419651 -0.10435256 -0.43231258 -0.7132305 0.10074471 0.592091 0.1468381 0.96389747 0.41803035 -0.6009591 0.55716234 0.83014643 -0.6477495 1.2636188 0.09915141 0.0963534 0.54550856 -0.83619624 -1.0669404 -1.2069833 -0.39633006 -0.07037679 0.06660002 -0.24138089 1.2087014 -0.14743759 0.5413999 -0.5047932 -0.28008404 0.22406982 0.73401296 0.40599108 -0.291338 -0.4133949 -0.616311 -0.25124443 -0.30370688 0.061536342 0.658539 -0.16478342 -0.21837756 0.23646902 0.5056479 -0.41069806 0.22799486 0.8084395 -1.0841535 0.023404716 -0.28583056 0.2750223
200404 0.7224005 0.44498926 0.63992816 -0.016821155 0.6728538 -0.7367113 0.4536239 -0.10184003 -0.74142426 -0.2501812 -0.062580705 0.8096689 0.09753313 -0.31103578 0.2805365 0.53823227 -0.15504195 -0.7761353 0.7992927 0.030382687 -0.088239945 1.1104653 -0.7245481 -0.97903734 0.6566204 -0.35521516 -0.78228503 0.49653944 -0.055475105 1.0613086 0.098178126 -0.39672327 0.39183253 0.20142783 0.044452988 0.18888083 0.73753333 0.93954974 0.6532457 0.4802436 -0.107376926 1.0598786 -0.014558862 0.9048422 0.41763234 -0.037810285 -0.8425259 -0.10611076 -1.3972417 0.28095865 0.5998032 0.7304332 0.7492858 0.7442034 0.22809167 -0.27470765 0.6793936 -0.6008164 0.44220063 0.52227 -0.40111965 -0.1464778 -0.22763611 0.30742866
681808 0.07784408 -0.16242392 1.2256382 0.85143936 -0.536523 -0.190323 -0.82891774 0.08488839 0.38076538 0.4334722 -0.009761353 0.06931728 0.42958885 -0.24860518 0.18556626 0.66031283 -0.18590179 -0.035928935 -0.061158407 0.2055947 0.6339385 0.84736437 0.46410832 -0.45361125 0.35764316 0.16215236 0.10138697 -0.33543324 -0.4653829 -0.72421795 -0.2526802 -0.5631634 0.13897683 -0.560171 -0.37829852 0.3958208 0.09014057 0.61452025 0.729797 -0.1326277 0.30297932 -0.0031683433 -0.32064828 -0.09020882 0.59849685 0.062363327 -0.0068561933 0.34043723 -0.59222984 -0.24855645 0.51528615 0.75193006 0.8328238 -0.35447428 -0.025886867 -0.15024585 1.0959167 -0.68435854 0.38636026 0.58718437 -0.42938232 -0.16435699 -0.9962041 -0.16534814
28080424 0.2640964 -0.4951809 0.060431916 0.8317789 -0.31382185 -0.21197835 -0.040462974 -0.34359154 -0.053651117 -0.32985884 0.2763218 0.55290467 -0.07462686 0.7038718 0.57163846 0.14817359 -0.22601084 0.15257376 -0.8083814 0.5110178 0.045918386 0.54513025 -1.0502138 -0.82012254 0.21147892 0.19254589 -0.33299255 0.6962512 0.4304583 0.3194366 -0.15723757 0.41484594 -0.2957326 -0.076356396 0.46355644 0.085540615 0.15031762 0.4354778 1.0174304 0.60641634 -0.34926948 0.37295765 0.06393802 0.29775622 0.21093574 -0.28857484 -0.09862877 0.85184866 -0.8166601 -0.09968778 0.8814337 -0.1146064 0.9215207 0.12020929 -0.0029288211 0.6621271 0.012499085 0.1710947 0.11776441 0.7448495 -1.219849 1.0498575 0.054913443 0.20479058
403600 0.087139204 0.22534396 -0.2649462 0.3105743 -0.62139577 -0.85421956 0.90108526 -0.7100842 -0.013311463 -0.41056055 0.10561917 0.5456011 0.21735682 -0.47475982 0.3374782 0.71004456 -0.60970354 -1.18705 0.6648001 1.5069 0.11475821 0.6675216 0.07800317 -0.91950536 0.6259677 0.72011423 -0.59013027 -0.36854145 -0.02639701 -0.08459725 -0.4859351 -0.16736533 0.5840812 0.50294805 0.4501945 0.09751905 0.318386 -0.4513367 0.025569178 -0.45205477 -0.3847018 0.23560649 -0.545992 0.25433815 1.4542786 -0.008421989 0.20906349 0.010766651 -0.86092556 -0.32735762 -0.4120292 0.0977916 0.25379646 0.05688032 0.007138848 -0.14263338 0.42250487 -0.2279806 0.4737213 0.8484703 -0.80797327 0.6200528 0.26216626 0.34159005
81202 0.015610939 0.12951922 -0.21030924 0.23069893 -0.0046642376 -0.13244721 0.10790982 -0.49558482 -0.17351484 -0.19882144 0.28149378 0.5503782 -0.421475 -0.32208028 0.50758684 0.7596698 -1.0062582 -1.1100138 -0.6540189 0.48356277 -0.7491814 0.7292934 0.869168 -0.12485793 -0.53545886 0.08624118 -0.13555497 0.17914571 0.0758292 0.13858487 -0.13235529 -0.8457039 -0.34084967 -0.18486077 -0.62231475 -0.46898836 0.599907 0.31404513 1.181203 0.23737262 -0.030283907 0.78768545 -0.12713845 0.32906184 0.4154929 0.48531187 0.05630142 0.29996717 -1.2040918 0.7497938 0.06484932 -0.12114076 0.63740253 0.4582445 -0.7172546 0.109711185 1.0051063 -0.21664457 -0.31623217 -0.38571116 -0.2532102 0.007218136 0.16890039 -0.18371582
28160420 1.0487183 -0.32932302 -0.024031842 0.64159596 0.5559414 -0.2127521 0.73513085 -0.5551318 -0.12270739 0.17320187 -0.2802551 -0.13758618 -0.19620514 -0.2979288 0.41142005 0.3627857 -0.75946945 0.7306832 0.8502509 0.70722467 -0.20416027 1.9039576 -0.37970623 0.09482749 -0.3486229 0.4612585 0.33595777 0.05955407 0.17567392 -0.15690522 -0.3645193 -1.0487032 0.20373812 0.015825644 0.052883208 -0.053922616 -0.634264 1.2633886 0.032783095 -0.00981699 0.53686684 -0.43972132 -0.5361413 0.07542954 0.6772338 -0.007848988 0.21529342 0.037027404 -1.1615146 0.6912959 0.7872983 0.097813025 1.0027952 -0.14497975 0.11698106 0.4153098 0.77578586 -0.43238333 -0.13411035 0.57124233 -0.5949383 0.42036065 0.30947274 0.37115094
8180816 -0.22574943 -0.05742454 -0.2943485 -0.27587798 0.07521809 -1.1083008 0.6193727 0.25509995 0.35101324 0.3401085 -0.4236263 -0.3500658 -0.06070467 -0.7238169 1.0219718 1.0507576 -0.29153284 -0.061239082 -0.47058675 0.40765718 0.108538635 1.1849469 -0.13003603 -0.23794141 0.63296455 -0.1981464 -0.08658404 -0.24234396 0.3616279 -0.0082738865 -0.047241986 -0.47868037 -0.3729963 -0.08523399 -0.6041996 0.5960663 0.13739388 0.18694438 1.4348959 -0.06096311 0.22704893 -0.53142166 -0.82297057 0.8257151 0.22791709 0.02867749 -0.6450592 -0.3896199 -1.2490616 0.40739655 0.6656065 0.19155252 0.5551527 0.6068274 0.1997083 -0.123357594 -0.64944863 -0.37135693 0.85600513 -0.022530537 -1.2335835 0.5282568 -0.103854336 -0.41639844
242400 0.6387584 0.43798265 -0.12795016 0.2358861 0.016195431 -0.1358511 -0.65196025 -0.4492062 -0.23265962 -0.22735497 0.63196486 0.094872385 0.08543552 -0.14631224 0.5831231 0.91792834 -1.159522 -0.11914412 -0.22575597 0.63870144 0.37859696 0.75711364 -0.83742666 -0.55358994 0.32131842 0.61555576 -0.7419845 1.0709548 0.19385973 0.15725058 -0.29471898 0.5425978 -0.18830478 -0.21283673 0.1406189 -0.0653892 -0.26491806 0.022344336 0.37362087 0.17491826 0.12151173 0.019909108 -0.02151948 -0.27290508 -0.4347655 0.24757889 -0.029087469 0.15259273 -1.2018923 0.18812671 0.4049048 0.25747782 0.644611 -0.40011352 0.927705 -0.017443629 0.54999423 0.50113416 0.05634852 0.24982794 -0.7587929 0.51431894 -0.23316586 0.47465518
560800 0.83667094 -0.5909829 -0.5300534 0.51273316 -0.046543147 0.06006843 -0.49150652 0.040592726 -0.1410034 0.72506034 -0.5488428 0.2958308 0.28593174 -1.0365142 -0.06519873 0.5919304 0.15415175 -0.581761 -0.0650731 1.068366 -0.09605666 1.2323956 0.39627516 -0.5125915 -0.28057897 0.2736199 0.4013718 0.28181973 -0.22230722 0.7472336 -0.20713876 0.31200677 -0.9503986 0.44251084 -0.23264924 -0.5060651 0.18978916 -0.36896136 0.5861957 0.38787934 -0.32982773 0.16767344 -0.57027245 0.6825913 1.0265477 0.2378285 -0.40220463 0.37337443 -1.6756482 -0.2526838 0.8305766 -0.24132313 0.44637898 -0.4157737 -0.616202 0.41436946 0.8805395 -0.123765394 0.4933416 -0.63915026 -0.37446663 0.12629527 -0.26700586 -0.4135349
280416 1.1811798 -0.28881925 -0.7363395 0.35102347 -0.5833557 -0.8829945 0.48700267 -0.10257605 -1.017724 -0.18763839 -0.5693175 0.08297721 -0.50496286 -0.048222728 0.34399784 -0.0077418215 0.19156414 0.39249495 0.32675293 -0.043657042 0.13904962 1.2094942 0.58836836 -0.25485212 -0.69804823 0.14905326 -0.56132066 -0.020177154 0.5712514 -0.7796396 -0.1704011 0.05670165 0.023251692 -0.0011348944 0.28718758 -0.055615902 0.8958239 -0.07643167 1.0567198 0.61573106 -0.103521265 0.56239355 -0.41466522 -0.25719428 0.46061835 0.21467568 -0.8401786 -0.12219992 -0.4276087 0.060141563 1.0352231 -0.1834359 0.820573 0.6928665 -0.33696815 -0.89599603 0.90790147 -0.42408484 0.30035168 0.43806344 -1.4229704 1.0557865 0.23603134 -0.292028
122020 -0.13600743 -0.5680692 0.67442 1.352792 -0.019286389 -0.15415794 -0.39904302 -0.8000412 -0.074242316 -0.16722578 -0.59448063 0.72797483 -0.270376 -0.9474636 0.8621605 0.56986487 -1.5094486 0.17891467 0.51558626 1.4779344 0.31674448 1.1716894 0.15072477 0.008256763 0.1512637 -0.024110647 -0.8283747 0.96442187 0.5815697 -0.03301694 0.022967575 0.34049785 -0.10049299 -0.9306606 0.11954887 -0.13101496 0.7374557 0.066805124 0.3874752 0.09597554 0.103524946 0.021049244 -0.18550794 0.75483644 0.2290382 -0.20419769 -0.5934219 -0.41674873 -0.6730735 -0.021227842 0.94704115 0.06931873 -0.11975874 -0.23459575 0.14604208 0.17992836 0.0936002 -1.1261625 0.06887293 0.15814066 0.17001016 0.23710915 -0.37642646 0.25014034
282404 1.2239919 0.26162544 0.37970802 0.53631926 0.93729556 -0.5875932 -0.4362818 -0.24532178 -0.8226554 0.2327099 -0.66102576 0.13770853 -0.5647327 0.029411491 0.15368359 0.2782175 -0.4652954 0.7298474 0.46133462 1.0393096 0.26124555 0.5009044 0.45832863 0.04878318 0.6861682 0.60609066 -0.7001165 -0.25013554 0.15936624 -0.28638443 -0.08993306 -0.5871587 -0.08841823 0.7516109 -0.3921343 -0.15646237 1.2535522 0.12746848 0.85612667 0.07134 0.09997086 0.9920172 0.04755229 -0.29776248 0.7980238 0.026742054 -0.57920825 -0.1636034 -1.0447055 0.30988723 0.1356036 -0.07311481 0.2843121 -0.44249877 -0.3890006 0.18054743 0.026103217 0.04752623 0.36021397 0.6511766 -1.353937 0.76797134 -0.76633185 0.037398383
81808 0.02609507 -0.34336308 -0.10898163 -0.036286842 -0.1154506 -1.0506209 0.12505531 0.19843833 0.55552924 0.46558064 -0.32823062 -0.360165 0.28801107 -1.1275396 1.0754112 0.9538595 0.23484734 0.12339953 -0.353214 0.5390511 -0.21375164 1.0652487 0.123551756 0.100848675 0.75507104 0.03594038 0.056611873 -0.17913233 0.14042954 -0.3161518 -0.19948119 -0.3307476 -0.21604392 0.29947114 -0.5384505 0.41347662 -0.2397196 0.33099043 1.5160902 0.24666718 0.13579452 -0.4950188 -0.2997952 0.9378535 0.3954433 0.17393878 -0.41580006 -0.31877786 -0.9715568 0.40613383 0.45628077 -0.20844372 0.823777 0.3769648 0.16000324 -0.46713516 -0.38285634 -0.53699493 0.27028927 0.061077908 -0.9300419 0.4416354 -0.44352618 -0.1247136
522400 0.06467218 0.23868456 0.36635718 -0.4859159 -0.12302795 -0.3225533 0.16496722 -0.7005307 0.3820407 -0.28983748 -0.019775385 0.5684061 0.37265015 -0.89964926 0.21547702 0.5214017 -0.51810277 -0.7020507 -0.27303198 1.305409 -0.15528193 1.1709819 0.16982053 -0.9098024 -0.47527242 0.6511719 -0.33796862 0.07840607 1.0595807 -0.94119954 -1.0867053 -0.095628835 -0.035220165 0.2802764 -0.46172017 -0.12813345 0.5035849 0.7836024 0.3265544 0.22944422 -0.0332612 -0.020015053 0.065135896 0.68957406 0.7303689 0.42106172 -0.061190646 -0.7329126 -0.30425283 -0.46672523 0.5499522 0.26110148 0.23006076 -0.92710847 0.2895212 0.2065137 0.16004026 -0.9437748 1.1847249 0.92587054 -1.1166413 0.6948099 -0.40680417 -0.08559476
524000 -0.1888268 0.11985534 0.2914014 -0.084849775 -0.3121158 -0.76505756 0.36547336 -0.7870781 0.18061747 -0.21972977 0.17321618 0.3133903 -0.04787633 -0.8107065 0.57379997 0.80680686 -0.46289402 -0.8705564 0.017721614 1.2529863 0.18753585 0.82512903 -0.3905647 -1.0172462 0.094457775 0.76062876 0.4069667 0.060571317 1.1402675 -0.774046 -0.7002485 -0.29022157 0.06937071 0.039376285 -0.10663524 -0.13077566 0.08934326 -0.0035604222 -0.074380815 0.52789116 -0.84361845 0.3111118 -0.15720491 0.38393572 0.6551976 0.4092635 0.2760081 -0.8853176 -0.63939714 -0.30991212 0.15172678 0.114395894 0.2733018 -0.2506679 0.18708973 0.20926283 0.65021104 -0.7622492 0.71907246 1.0538588 -0.603302 0.17737707 0.18176454 -0.09838107
283228 0.13525045 0.0073470525 -0.4927295 1.14129 -0.15019177 -0.5350526 -0.53094023 -1.0643868 -0.36160633 0.21458712 0.06181869 0.628296 0.48521203 -0.18988876 0.06898535 0.43281177 -0.4265469 0.054781184 -0.29144442 0.94975305 0.8790508 0.49324828 -1.147848 -0.63946044 -0.16575664 -0.0004331917 -0.14250366 0.31783068 0.7732063 -0.4706654 -0.11373624 -0.3365827 -0.1397729 -0.13153808 -0.0006646851 0.104416326 0.31549147 -0.32567796 1.1701971 0.46545294 0.26209402 0.10569949 -0.28812125 0.43335775 -0.2551126 -0.30157605 0.8794841 -0.35576698 -1.4238205 0.5578793 0.38356942 -0.36995754 1.3545359 -0.6672749 0.061933354 0.33320394 -0.09379657 0.120577544 -0.14040607 0.5041456 -1.1557341 0.40614808 -0.5005344 -0.4176078
484800 1.0717984 -0.7877803 -0.5340057 0.30373207 -0.2984264 -0.015789656 0.2157886 -0.10418286 -0.8803742 -0.102280125 -0.16554347 0.16013712 -0.28518882 0.26167434 0.990455 0.6492461 -0.8328443 -0.44648173 -0.28320792 0.17581636 -0.32074618 0.553941 -0.46827137 0.31006047 0.37363634 0.08090922 -0.9748303 0.18185684 0.006153831 -0.04226357 -0.9048208 0.15791413 -0.06852183 -0.36699185 -0.058520295 1.2614578 0.29922825 -0.17136414 0.5501432 0.054441236 -0.50314635 0.2322994 0.022203729 0.5153077 0.44030046 0.42588663 -0.010528716 -0.26366132 -1.245778 -0.61542815 0.7926188 -0.32631025 -0.10991099 -0.16115166 0.00076081994 0.07836214 -0.10759334 0.17972818 0.49682832 0.87871444 -1.2230722 -0.097843215 -0.32035923 0.20511505
24040416 0.681293 0.60121614 -0.19167967 0.29393452 -0.013094568 -0.1904476 -0.49326894 -0.15823351 -0.18585211 -0.15239555 0.5758517 -0.10436296 -0.20756322 -0.12805443 0.11709586 0.7833824 -0.96585786 -0.2917442 -0.23921835 0.6165959 0.042710762 0.6365908 -0.62146586 -0.6428104 0.49763602 0.2662215 -0.8743389 0.8014185 0.07143013 0.027141923 -0.15775743 0.44564846 -0.37536332 -0.5994606 0.052730087 0.015701413 -0.14409032 -0.22211842 0.25367436 0.06300933 -0.079228275 -0.16033609 -0.5055437 0.12885289 -0.35168898 0.18037985 0.061721485 0.18137254 -1.1567584 0.39400733 0.4147641 -0.06948346 0.6530687 -0.43046018 1.029013 0.1251659 0.8040933 0.7749681 0.21568763 0.41794282 -0.7047767 0.38990933 -0.21558344 0.6298352
683200 -0.18036816 -0.69413817 0.35766068 0.39511898 -0.66669023 -0.85530514 -0.5582106 -0.4476356 0.6288605 0.9649637 -0.59979916 0.039656345 0.6996098 0.405647 0.7656059 0.92249346 -0.5426053 -0.7015765 0.4783323 -0.37203172 0.20961383 0.6930062 -0.018913165 -0.557497 -0.28034633 -0.018166726 -0.4704347 0.40424415 0.31871137 -0.041574277 -0.42131343 -1.1437739 -0.5067391 0.089419656 0.094881326 0.17888506 0.49363762 0.6400649 0.6066833 0.15528063 -0.10801057 -0.3322114 -0.16949545 -0.48035383 0.28710073 -0.27162763 -0.97221655 -0.1139931 -0.09063386 -0.22641136 0.85364664 0.12304829 0.5736539 -0.12250806 0.2607341 0.34735972 1.0598903 -0.47867927 0.35831094 0.27125806 -0.44511497 0.65854836 -0.27653673 0.32795167
682006 -0.12334306 0.11486319 0.643431 -0.33445635 0.31359348 -1.3726107 0.18683366 -0.12827928 -0.3711691 -0.02246538 0.07571459 -0.41056097 0.27442384 0.80267245 0.48784044 0.21352474 -0.8762976 -0.5452484 0.9297241 1.0341295 -0.22429031 0.4164765 0.044680838 -0.63325703 -0.38753113 -0.36670017 -0.11737892 0.6774296 0.66274774 -0.58889574 -0.63721687 -0.054694656 -0.3564998 0.14395413 -0.8745525 0.12601006 0.13758086 -0.38640568 1.1056111 0.021619715 0.7830829 -0.013163974 -0.6299173 0.408255 0.70723796 0.16294806 -0.31698394 -0.4919797 -1.0686805 -0.24736856 0.9274085 0.015709668 0.7000867 -0.04835868 -0.86308426 -0.40756354 0.054273896 0.28685462 -0.56840616 0.34237581 -0.7686912 0.74634 0.2794902 -0.060662482
523200 -0.042504817 0.18991297 0.29781735 0.5814773 0.34864506 -0.44373885 -0.49924812 0.5280566 -0.45340306 0.33557212 -0.40196615 -0.362047 0.30720493 -0.17741556 -0.24499322 0.44441277 -0.16226377 -1.217018 0.6900776 1.1582499 0.30994475 0.3037171 0.32298163 -1.487548 0.7214375 0.62717646 -0.17797913 0.89352787 0.06304609 -0.32876113 -0.08781523 -1.1580822 -0.026027655 -0.9234537 -0.11862207 -0.33509603 0.6061314 -0.5171688 -0.17264535 0.39038834 -0.87781143 -0.4961353 -0.3175776 0.46301013 1.0477535 1.1352668 -1.245187 0.24004921 -1.6203319 0.77966243 1.1888295 0.9913122 1.0067534 0.314114 -0.47985044 -0.39617783 0.15885636 -0.5916499 0.6388813 0.5652338 -1.1157051 0.2044919 -0.045154646 0.24836378
122004 -0.36777243 -0.6735977 0.17970952 1.4029565 -0.38647562 -0.042089134 0.21273401 -0.6043616 -0.4244608 0.03886801 -0.25709426 0.74310845 0.09114611 -0.90742165 0.9669769 -0.015913412 -1.3277688 -0.14766853 0.56983644 1.2485459 0.34781852 1.0328288 0.041281044 0.07617897 0.3285394 -0.2945386 -0.7135746 0.77795917 0.65745205 -0.43663463 0.013250108 0.58411264 0.2243064 -0.944888 -0.17223413 -0.09474514 0.3928549 -0.01142881 0.95125633 -0.2818414 0.42060256 -0.3126613 -0.115644306 0.7077902 0.55252695 -0.27450663 -0.8872525 0.14801659 -0.7521939 0.116896555 0.4040919 -0.29791322 0.2635148 -0.0803795 0.28367117 -0.7400904 0.2955487 -1.1811649 0.7330454 0.8392458 -0.23674442 0.5248918 -0.5102481 0.10639444
81408 -0.114220925 -0.08606348 -0.3281522 0.12025123 -0.6490537 0.21666543 0.12312999 0.4007851 0.15219449 -0.2770159 -0.7698351 0.6078039 0.29127756 -0.61034316 0.5214155 0.9705721 -0.13340771 -0.99641013 -0.042736195 1.1842153 0.23057215 0.3510572 -0.97609204 0.27430606 0.5775423 0.29549938 -0.5331021 0.1342208 0.03649495 0.5518288 -0.3637147 -0.14221925 -0.3667763 -0.31628656 0.10861528 0.09874095 0.5510001 -0.038960736 1.5260215 0.94084644 0.4749147 0.4289609 -1.289323 0.44137716 1.1523461 0.69353956 -0.6391519 0.31461552 -1.25737 -0.26268348 0.014808286 0.26859045 0.122002795 -0.0036312093 0.6295242 -0.85660064 0.6890188 0.34327132 -0.44837496 0.32268274 -1.1776392 -0.65312696 0.28752452 -0.16004926
81800 0.22454032 0.5188837 -0.061015572 0.07310912 -0.3922101 -0.83301604 -0.24620284 0.14621359 -0.07629911 0.33404484 -0.23804261 -0.079587646 0.38877353 -0.73216563 0.857008 1.0793418 0.5739008 -0.14319418 0.09414971 0.22607364 -0.12853907 1.1809126 0.3399459 0.18064986 0.44698757 0.40887883 0.12522763 0.038508024 0.104980014 -0.13664906 -0.38560206 -0.17130184 -0.447902 0.06408804 -0.42701593 0.7217902 0.101267144 0.3410378 1.6707059 0.266258 0.10472047 -0.6149449 -0.052540556 0.36934498 0.22752035 0.29997885 -0.59650975 -0.53394157 -0.42655286 0.45334864 0.503547 0.12059311 0.48583806 0.5361263 -0.20166232 -0.5120531 -0.5751906 -0.8681315 0.48521397 0.03299587 -0.384529 0.4139514 -0.6204808 -0.07456205
880800 0.4547519 -0.243366 0.64678705 0.023921978 0.4512221 -0.49446782 0.17769341 -0.27668056 -1.6934851 -0.25213963 -0.1441152 0.22367801 -0.049511395 -0.3869773 0.057450887 0.42612827 -0.545552 -0.3042635 0.8370985 0.1632038 -0.5241129 0.23563413 -0.30262098 -1.0320228 1.1643562 0.27571982 0.048121013 0.12066212 -0.40606424 0.3253004 -0.80521387 -0.19423282 0.2839113 0.3422568 0.40065482 0.5125747 0.59087205 0.66769934 0.6999959 0.26871106 -0.4331671 0.35675997 -0.7581442 0.951375 0.7583795 -0.28002948 -0.55644834 -0.19100074 -0.5464188 0.8006376 0.5797075 0.0324598 0.64654076 0.16721755 0.61872566 0.112704165 0.7206314 -0.14179723 0.40135562 0.026807042 -0.48333696 0.19873641 -0.6462248 0.19981383
81224 0.23627116 0.52320087 0.01173599 0.5584259 -0.14011987 0.3658156 0.53005296 -0.08171284 -0.32055637 0.8108937 0.11998868 0.5278953 -0.021132248 -0.12803794 0.41964608 0.46118236 -0.3762007 -0.5946164 0.33602005 0.42489555 -0.71613765 1.0534203 0.27343634 -0.36363152 -0.8379419 0.35079947 -0.15310057 0.083456434 0.2790901 -0.29614696 -0.014436559 -0.081009924 -0.8161303 -0.12518764 -0.3904443 -0.68425995 1.1798707 0.24526508 1.1634455 -0.025370367 -0.0011422542 0.48941392 0.30447128 0.3643743 0.5955418 0.38172916 -0.09206115 0.31607237 -0.7902175 0.9213576 0.22814506 -0.50422305 0.49658594 0.2313386 0.042168364 0.15300964 0.86688274 0.3282082 0.5502047 -0.0018284761 0.14099506 0.16354331 -0.21814299 -0.05454124
921600 -0.21346606 -0.10429987 0.3214841 -0.09402532 0.12488688 0.41486403 -0.45016694 0.31607968 0.41428897 0.37298322 0.3610031 0.83208466 -0.22734988 0.08672819 0.3939734 -0.06497463 -0.5406243 0.6345052 -0.012219482 0.8623622 -0.36927027 0.7087308 -0.63663626 -0.57006896 -0.29463997 0.1803783 -0.3769066 0.44572452 0.008805586 0.3195211 -0.33323437 -0.048535112 -0.5783388 -0.442448 0.69576216 0.06697006 -0.1188051 -0.208586 1.1299142 0.44904652 0.07765668 -0.12515503 -1.2464876 0.17302343 0.032542367 0.4437881 -0.41946447 0.9440446 -1.376659 0.7399204 0.59564656 0.74991655 1.0945863 0.065725185 -0.6136014 -0.040884364 0.4010193 -0.12056093 0.54332334 0.68447703 -1.3356006 1.1246823 -0.35311133 -0.032158673
243204 1.2537515 0.2240679 -0.8169524 0.7283391 0.022932056 -0.33190736 -0.20136611 -0.29665616 0.1419988 0.07336192 0.54842126 -0.12608626 -0.13208471 -0.30576137 0.81276053 1.1308799 -0.98248726 -0.44434327 0.1320808 0.5413491 0.2542025 0.4713145 -0.44656757 -0.636063 -0.054451443 0.19284546 -0.53642404 0.22930868 -0.23301096 0.44236693 -0.9824048 0.081473544 -0.4880533 -0.4103621 -0.53970784 0.33207422 -0.54107356 -0.03207038 -0.050785903 -0.14948726 0.35853508 0.10036995 0.2967696 0.36798722 -0.20965666 0.47847033 -0.15639706 -0.09053866 -0.93446064 0.15353347 0.72912747 0.22235695 0.10408847 -0.4899713 0.07193947 -0.19370034 0.5092346 0.20744039 -0.4572058 0.21587135 -0.9317395 0.955162 -0.8022748 0.28882545
562836 0.3638689 -0.4714602 -0.5228488 0.8246902 0.2679196 0.13711569 0.041981235 0.10336314 -0.31294346 0.25068486 -0.39286596 0.56242454 -0.27756375 -0.8077659 0.1319593 1.4749727 -0.18957451 -0.4733083 0.58597195 0.6500886 0.32707605 1.1756706 -0.055177193 -0.5397553 -1.1180062 0.84590673 0.056003135 0.6346337 0.34479648 0.32343563 -0.61183465 0.09353732 -0.6862815 -0.2537504 0.12356034 -0.25451362 0.705491 -0.5622083 0.7224076 0.2876262 0.3147977 -0.3431512 -0.2226918 0.54712355 0.8037269 0.20695665 0.28142846 0.4264272 -0.85520685 -0.13308889 0.3508024 -0.6728659 1.0184065 0.38271123 -0.23799765 -0.1728015 1.3124233 -0.04448582 0.17919463 -0.49634257 0.13032436 -0.29165226 -0.104220495 0.00049750396
282004 -0.09418177 -0.2498118 0.012201786 0.45600638 -0.7652014 0.8317998 0.023640187 -0.21748026 -0.9366312 0.6474643 0.0379368 -0.5311195 0.6441061 0.43764138 0.8489938 0.36510587 -0.8271297 -0.28849965 0.25713798 0.36317426 0.6109374 0.26439542 0.36696252 0.08190033 -0.51813465 0.8549583 -0.7749343 0.2564749 1.3312148 0.32994455 0.19531292 -0.053803355 0.29174098 0.38969034 0.04020385 0.6880092 0.45461243 0.16671759 0.7305525 -0.3412367 -0.09740834 -0.24897957 -0.8081054 0.5976661 0.82668585 -0.013109923 0.1887355 -0.5280734 -1.2134184 0.4001334 0.78491586 0.5903604 0.42544764 0.2844086 -0.30606976 -0.122984685 0.81459844 -0.45429474 0.13559468 0.9168858 -1.6002727 0.4422187 -0.59006304 0.10160515
8184020 0.36622098 0.55108744 -0.040515512 0.5166791 -0.37939173 -0.39052868 -0.34790707 -0.378961 -0.7095628 -0.24925217 -0.38479272 0.33808997 0.44102633 -0.64063066 1.126382 0.62330836 -0.7479417 -0.68141353 0.11759918 0.7096538 0.48498395 1.0115271 0.8257524 0.11315925 0.6210591 0.10858266 -0.45906904 0.32131794 0.2895814 0.28323153 -0.2671114 -0.34336448 -0.27385417 0.3402818 -0.38601738 1.0266887 0.09500322 0.69601077 1.405849 0.35962275 0.012900919 -0.29638484 0.17711376 0.25314215 0.35390672 0.62015975 -0.41948622 -0.7615995 -0.4923154 0.28850484 0.9853945 -0.26416194 0.8768801 -0.040379748 -0.4699606 -1.0799508 -0.691638 -0.39789674 0.09673949 -0.5405204 -0.48567098 0.6480443 -0.80692405 -0.15117258
8121204 0.05327737 0.6964031 -0.4983406 0.9701245 -0.22771497 -0.12775126 -0.14523932 -1.1300722 -0.44695836 0.6604696 0.43523052 0.62500226 0.40634817 -0.36890525 -0.1567191 0.6070391 -1.313881 -0.43356547 0.46758756 0.8910306 -0.65028185 0.48088616 0.6741214 -0.26941672 -0.6902761 0.530305 -0.122089095 0.19950128 0.3073344 0.021288577 0.09193739 -0.84053063 -0.3786628 -0.024824582 -0.7266157 -1.2692826 0.7479631 0.44059184 0.9172012 0.32042217 -0.33865628 0.51232547 -0.11298145 0.57586545 0.3683228 -0.28115627 -0.75773644 0.5700611 -0.5911968 -0.30368462 0.6156762 -0.20405512 1.1018193 0.36999372 -0.5665178 -0.17682827 0.726809 0.042735662 -0.09479781 0.4607237 -0.6308027 0.29028472 -0.52159077 0.32224354
640000 0.2641916 -0.2023319 0.08156597 0.6027694 0.048051678 -0.5609135 -0.24440934 -0.5719283 -0.9349668 -0.48087394 -0.25530615 0.4803862 0.30649742 0.20518512 0.042082332 0.5845018 -0.35014462 -0.018192422 0.26377103 0.375 -0.6030699 -0.25114465 0.30879626 -0.45219243 0.6681134 0.92151165 0.06648825 -0.2847717 -0.37585115 -0.16673703 -0.87699026 0.042335067 -0.8956781 -0.27468398 0.3308025 -0.2262154 0.20003118 0.36317468 0.69806474 0.14344285 0.26996598 0.035750665 -0.9127402 0.26963294 0.8257114 -0.07327123 0.032351665 -0.6363592 -0.6419491 0.9094873 0.42748174 0.08271362 -0.36105716 0.021870624 0.8907092 0.230008 0.47856736 -0.60489506 0.5770102 0.2743302 -0.4295926 -0.13758689 -0.4647102 -0.095775604
40800 0.68405366 -0.093456395 -0.09101088 0.11120173 0.48433915 -0.21520783 -0.4325854 0.23699068 -0.027078798 -0.7251743 0.09000452 -0.21480258 -0.16603713 0.30302802 0.8094266 0.21240038 -1.0985489 -0.06930216 0.21047062 0.44723415 1.0490404 0.8638195 -0.59660697 -0.34284496 -0.52214605 0.54596055 0.11616415 -0.7694838 0.2531095 0.109888196 -0.3884038 -0.55272704 -0.34740016 -0.19800338 -0.10025436 -0.31006274 -0.37574187 -0.075363494 1.1373217 0.03406051 -0.079560935 0.10933298 -0.9940128 0.19807413 1.2462586 -0.49274942 -0.63506633 -0.11031652 -1.2816569 -0.39235535 -0.2695677 -0.6981724 0.73042023 -0.15016288 -0.6284927 0.0033275445 0.02596525 -0.8576271 0.30564848 0.081903614 -0.85864276 0.68599 -0.63742787 1.1539267
49200 1.0093838 -0.42078426 -0.14517507 0.43073642 0.5798278 0.045205873 -0.3875713 0.87226725 -0.18520916 0.25972277 -0.23977296 -0.013068113 -0.54204994 -0.28255925 -0.02837369 0.73691535 -0.42822242 -0.09262174 0.22666116 0.35533714 0.8822084 0.85848594 0.2627124 -0.39968312 -0.5890247 0.51613325 -0.1597768 -0.28895992 0.5144779 0.19528227 -0.16178145 -0.14728168 -0.5940338 0.22951525 -0.3376494 -0.1438612 0.76824033 -0.419231 0.9061245 -0.019874388 0.12383985 0.31838155 -0.2618045 0.043797232 1.3056244 -0.13413456 -0.6365037 0.42522934 -1.2234006 0.12705146 -0.12746806 -0.87229455 0.5780718 -0.011292608 -0.31093448 -0.3088942 0.29467008 -0.29640493 0.31427416 0.017348805 -0.18979836 0.23887445 -0.02779249 0.5348642
81206 0.74643576 0.37950373 0.5385964 0.5588971 -0.8067792 0.19730495 0.26429233 -0.76655275 -0.47101128 0.22378697 -0.14269535 0.8508273 -0.08745356 -0.3869357 0.18359351 0.55154735 -0.5785571 -0.8366233 0.0867957 0.49116045 -0.74062675 0.881525 0.41867274 0.11789058 -0.3726409 0.110766895 -0.18618351 0.008768535 -0.2835944 -0.22874877 0.062211055 -0.7527676 -0.34052664 -0.59990203 -0.7867177 -0.8144119 0.74930763 -0.083934225 0.8720277 -0.36257112 -0.06405295 0.37111995 -0.46069407 0.42451826 0.1540995 0.10294929 0.7497908 0.12897675 -0.7241202 0.73959744 0.04671043 -0.59959525 0.75747937 0.41755617 -0.35448304 0.29064637 0.12036156 -0.11615742 0.06827223 -0.17405139 -0.91810185 0.576681 -0.036663115 0.2560033
81218 0.56071836 0.6858874 -0.1620487 0.54778385 -0.313861 0.08182974 0.6474894 -0.4622285 -0.22757144 0.01714744 0.19495824 0.72732794 -0.23735723 0.1306472 0.15137792 1.0450354 -1.1885417 -0.6146082 -0.33919525 0.9227488 -0.766011 0.78510374 0.45187065 -0.023824418 -0.65103686 0.66829675 -0.099567205 0.31775042 -0.116269834 -0.021688668 -0.3134006 -0.23972543 0.22083254 -0.4981879 -0.8429235 -0.49170545 1.1659881 0.28551003 1.0838597 -0.17606504 0.13865583 0.6799709 0.19248481 0.16560283 0.4870907 0.07360955 -0.22259744 -0.38037676 -0.6793082 0.2500858 0.43949017 -0.55776614 0.75507444 0.3624629 -0.34371933 0.4346391 0.48920622 -0.18339722 -0.19362259 -0.4347273 -0.3628319 -0.1474217 -0.13640654 -0.58928335
683604 0.73086953 0.13067715 -0.4405297 -0.19601117 -0.93323153 0.7210449 -0.17621982 -0.56031084 -0.49140146 -0.16373198 -0.09018063 0.038630735 0.7909878 -0.93101835 0.36410847 1.3836676 -0.74074125 -0.5136977 0.021839775 0.28260276 0.7095392 -0.49650756 -0.9219922 -0.36643243 0.24590993 0.50477374 -0.45664883 0.30735314 -0.05771285 -0.4856794 -0.90390134 -0.4421449 -0.19834979 0.15531608 -0.7281449 -0.75495315 1.09246 0.72702414 0.98740584 0.40024054 0.26195472 0.27955705 -0.8397209 0.9840909 1.1335143 0.2163903 -0.72437894 -0.6650267 -0.6885878 0.87880766 0.69983786 0.052273754 0.35966915 0.1918653 0.42055777 -0.59562457 0.41332725 -0.3561604 0.37094584 0.96027964 -0.59715086 -0.11227567 -0.084855884 -0.099640675
282032 -0.05759628 -0.7035494 -0.11113128 0.7294938 -0.7287369 0.0514579 -0.032071307 -0.3257854 -0.5378391 0.050782822 0.23752159 0.11811093 -0.20653555 -0.041905753 0.47993878 0.094344124 -0.74592966 -0.5286608 0.03902168 0.12183705 0.21316783 0.2778684 -0.4304315 -0.34319833 -0.12406115 0.82018495 -1.0089728 0.02389439 1.3186177 0.46022668 0.09192636 -0.024236852 -0.1836456 0.42239913 0.18397562 0.6949866 -0.04736757 0.056511678 0.7205123 -0.10535982 -0.16483337 0.015393743 0.017905952 0.34511393 0.38119152 -0.16073154 0.44807327 -0.45902565 -1.1328593 0.046997074 0.4875541 0.5020908 0.3623091 -0.07065789 -0.11994677 0.14467412 0.4026633 0.30435523 -0.16965315 0.9531907 -1.6374654 0.36553168 -0.34727162 -0.21459113
682020 -0.3709923 0.618355 0.64492613 -0.36647877 0.39439785 -0.8525632 -0.10182412 0.02278344 -0.09829603 -0.15353176 -0.14889367 -0.47776902 -0.07327133 0.56311816 0.58008754 -0.030651107 -0.2158242 -0.18858504 0.42538822 1.4108088 -0.45023608 0.28404948 -0.012160138 -0.5292511 -0.07108197 -0.34897825 -0.38714567 1.0180544 0.15444697 0.26334336 -0.74860895 -0.31335932 -0.62322927 -0.2017109 -0.38164967 0.21688055 0.17512953 0.04714181 0.7364426 -0.19712038 0.8677432 0.4466147 -0.013740466 0.32154536 1.1993165 0.09866773 0.18726906 -0.683426 -1.176274 -0.28624302 1.1394473 -0.63508224 0.9029356 -0.16679016 -0.6081938 -0.46027628 0.34871355 -0.47852784 -0.26721227 0.5095311 -0.92233473 0.5078709 -0.47689927 0.6033743
240404 1.0719727 0.12709998 -0.10245238 0.476749 0.020064924 -0.4868586 -0.06212634 -0.15658875 -0.4646533 0.24796109 0.24975657 -0.18600552 -0.4471295 -0.037678678 -0.4085805 0.5245564 -0.65909195 -0.44561267 -0.53360784 0.772761 -0.74139696 0.74699455 -0.29688627 -0.64118415 0.65081346 0.1781966 -0.7640283 0.6813424 0.1330286 -0.19709681 -0.5220309 0.039739285 -0.23035184 -0.14037414 0.26866668 0.09915104 -0.19339271 0.0761369 0.86804163 -0.26843137 -0.29524606 -0.38219023 -0.5917016 0.09299697 -0.029519457 0.56886435 -0.277572 -0.055132348 -0.7831456 0.38996333 0.12663285 -0.67565364 -0.07378497 -0.19285886 1.1989975 -0.11138821 0.7769161 0.7395474 0.44706902 0.43304652 -0.36418882 0.1450174 -0.15118068 0.055468187
682005 -0.11956382 0.17475362 1.0313888 -0.38962415 0.33588195 -0.533924 0.13978438 0.3151258 0.24359529 -0.13055685 0.0704833 0.2938261 0.066999175 0.49769655 0.87475026 0.23598179 -0.9551635 -0.13202833 0.34450126 1.1286743 0.034898724 0.20169556 0.0876992 -0.18109566 0.11827777 -0.27859536 -0.5042891 1.0225464 0.6734956 -0.08310036 -0.9717675 0.15765327 -0.6821833 0.23559234 -0.35602948 0.25555986 0.07103507 -0.5253377 1.2283489 -0.27408868 0.7002736 0.29127657 -0.16051753 0.42681763 0.6459444 0.5770389 -0.8136283 -0.70119196 -0.6919228 -0.5350396 0.7227005 -0.34412077 0.6772456 0.42573908 -1.0135093 -0.41472515 0.89394635 -0.5019317 0.01379618 0.41375116 -1.0315132 0.15706547 0.17240115 0.24862471
89200 1.194197 -0.9713237 -0.4747807 0.83394426 0.40530944 0.39886895 -0.3128837 -0.25335035 0.0632375 -0.20724675 -0.34350097 1.1229169 0.2764384 -0.52457446 0.94236815 0.77683085 -1.183215 0.24500577 0.8898454 0.21942578 -0.06337588 2.2141573 -0.51918894 -1.2897199 -0.023664784 -0.34426534 -0.34501827 0.93339944 -0.416506 -1.1374339 0.4111149 -0.65587306 -0.28707823 0.38324967 0.1455922 -0.32837933 1.0388387 -0.2475525 -0.15747158 -0.2625572 0.40605617 0.90763134 -0.3089146 0.30226496 0.72725224 0.1408501 -0.7533606 0.8767573 -0.85214895 -0.10647252 0.67482287 0.2264457 0.5619436 0.023657946 0.80165064 -0.3643183 0.83368707 -0.161378 -0.04624402 -0.05309561 -0.8353121 0.90796274 -0.87069947 0.16406448
281604 0.5921004 -0.556533 0.26270172 1.2343065 0.32902217 -0.23016152 0.5817964 -0.6769016 -0.39949298 0.25659868 -0.35642308 -0.44083303 -0.3259139 -0.07769439 0.23246376 0.13272022 -0.7033344 0.98257405 0.28241095 0.4247306 -0.05730387 1.4469832 -0.32840192 -0.28589612 -0.33925346 0.12395652 0.38678837 0.2504492 0.19781096 -0.07960404 -0.37706298 -0.6746219 0.29338792 -0.5840598 -0.041120928 -0.17224744 -0.6232046 0.81461215 0.10663519 0.08496855 0.22452168 0.07269363 -0.20093735 0.22609526 0.9062082 0.29887682 0.15002269 -0.33045092 -1.4451052 0.95019853 0.4805111 0.17717783 0.6776855 0.01427273 -0.113795854 0.05502311 0.70719373 -0.4339495 0.022554576 0.4474733 -0.67501706 0.18750146 1.0089943 -0.093718216
402000 0.603334 -0.09542018 -0.58478826 -0.03635366 -1.0256739 0.3198383 -0.53902346 -0.53207934 -0.32193324 -0.47533926 -1.0631129 0.56907403 0.79558533 -0.27547932 0.84051883 0.98767555 -0.17937782 0.2563296 0.25143737 0.9644495 -0.4331769 0.19157037 -0.22895369 -1.10146 0.059579756 -0.23133409 0.8579746 0.2889844 -0.27503178 -0.38782075 0.043501757 -0.44819394 -0.60221237 0.41292784 -0.15391903 -0.33882535 0.85404396 0.20566885 0.9900744 0.7920059 1.0556619 -0.53125966 -0.2786628 1.1650319 0.36302304 0.019220537 -0.7352313 -0.48516098 -0.056490846 -0.21501806 0.90433633 -0.28547546 1.7835552 0.21419956 -0.5273294 0.45023453 1.2645493 -0.4078105 0.91065735 0.41540793 -1.6046766 0.5329151 -1.2187669 0.5024032
240692 -0.48615602 -0.42943954 -0.33016613 0.6419465 0.3081499 -0.5069631 0.56888056 -0.6695336 -0.21286213 0.26530856 0.18020618 -0.42300114 1.3402716 0.42843738 0.11246293 0.65874934 -0.5798864 -0.3181746 -0.1325901 1.1409163 0.369799 0.74457145 0.12512055 -1.0362089 0.20326346 -0.3579017 -0.3964583 0.3944929 0.27012637 0.48766768 -0.28249472 0.2834098 -0.08181374 -0.7185417 0.5848937 -0.39558864 0.029077008 0.074875906 0.68233013 -0.4136368 0.1972904 0.6510619 -0.7845612 0.02551309 0.75949746 0.8155326 -0.59590065 -0.7118975 -0.6905415 0.2545552 1.2411346 0.32026505 1.0326962 1.0533102 -0.2030341 -1.0098875 0.3658443 0.10015926 -0.22730102 0.7103235 -0.81278676 0.49722174 -0.07016379 0.72731566
780000 0.15547588 -0.437548 0.8612113 0.3052316 -0.6712325 -0.87539476 -0.42036325 0.06233384 -0.29232064 -0.076986626 0.49025786 0.185671 0.76422536 -0.2125236 0.49492812 0.7617854 -0.16845301 -0.35097367 0.027772063 -0.28875694 0.13549902 1.2336336 0.09490964 -0.48151058 -0.19286482 0.3420209 -0.029189294 0.9342689 -0.5178626 -0.6385482 -0.13737226 -0.7587874 -0.19161199 -0.20446275 0.69892544 0.08430716 0.32147205 0.10036398 0.88984853 1.3360254 0.4555038 0.5871131 -0.51720124 -0.55540884 0.41007867 0.098851204 -0.27535975 -0.25674587 -0.6939105 -0.45717588 0.4505125 0.13801046 0.3571481 -0.76499903 -0.06278385 -0.2501557 0.5497533 -0.680668 -0.77907753 0.3288985 -0.5867092 -0.22022493 -0.20638585 0.1428364
241600 0.9510247 0.28798637 -0.8638791 0.2917483 0.4371668 -0.3410863 0.7943996 -0.7042446 -0.8200817 -0.45471606 -1.0236034 0.7330048 0.3243485 0.7239413 -0.34505355 1.6968062 -1.2734627 0.26528457 -0.35974604 0.76238215 0.16444337 -0.0014954502 -0.7448174 -0.13085392 -0.56094795 0.19304259 -0.06534081 0.33782575 0.4741868 0.056919765 -0.5555221 -0.32700902 -0.6161768 -0.6514302 0.20820847 -0.22799009 1.1457237 0.2526541 0.97784555 -0.00402312 0.5487967 -0.66031635 -0.16723259 -0.01841917 1.228184 -0.05637179 -0.65143883 0.41546363 -0.98968697 0.6069147 1.1480297 0.8015914 0.027543321 -0.06399583 -0.5580118 -0.18734066 -0.06028101 -0.8220081 -0.22288615 0.6913532 -1.1819217 0.87330234 0.12508847 1.0805699
840800 1.1334625 -0.36896378 -0.36526147 0.39504337 -0.07747829 -0.11909531 -0.7559534 0.2428277 0.10951647 0.015036018 -0.7814997 0.4316281 -0.019069366 -0.19526012 -0.025394188 1.1360167 -0.23705827 0.4709857 0.6300362 0.22121555 0.28117347 0.09539514 0.51153356 -0.83384836 0.40341383 -0.08399243 -1.1272752 0.055597987 0.96237004 0.23847729 0.35872445 -0.13950089 0.2525812 0.052353248 -0.35274678 -0.017984955 0.062347785 0.037741505 0.52002853 0.21112217 -0.04027574 0.60874605 -0.4092118 -0.3157207 0.88949126 -0.20569566 -1.3496207 -0.4807472 -1.348116 0.5862609 -0.047392186 0.20663957 0.7751624 0.023260077 -0.41264695 -0.30390313 0.5189071 -0.77821994 -0.027878655 0.48739156 -0.77716535 0.45796174 -0.9343438 1.074168
81400 0.032634903 0.02902037 -0.39712387 0.08944631 -0.5421671 0.40032223 0.029242799 -0.019347327 -0.12095105 -0.13302936 -0.63121694 0.5630252 0.144218 -0.28673255 0.3917302 0.65050864 -0.28513446 -0.78107816 0.15066041 0.9373696 0.068936795 0.15863442 -0.7086845 0.19663787 0.5653941 0.30338264 -0.2017056 -0.17484994 -0.23683847 0.58889246 -0.2806824 -0.30220518 0.004004858 -0.64907396 0.23849729 -0.36942604 1.0780293 -0.062704235 1.3363806 1.0062448 0.2080596 0.10471192 -1.4597552 0.56959903 0.96531683 0.5397166 -0.4758015 0.21763682 -0.8855492 0.20781131 0.19300842 0.065945275 0.18103354 -0.07864328 0.4863555 -0.9524249 0.5972984 0.35134944 0.01202627 0.20218317 -0.9512076 -0.49130875 -0.11124941 0.027787533
28160412 0.44041073 -0.5675035 0.22966787 0.9094442 0.095364206 -0.035709824 0.64236724 -0.62262607 0.086156845 0.10022169 -0.5287508 -0.59684414 -0.3829511 -0.03445104 0.37171042 0.1613661 -0.60858047 0.55196923 0.5761346 0.2456691 0.018364115 1.5789609 -0.57848763 0.0737629 0.06878462 -0.16949248 -0.07103114 0.746051 0.14469522 -0.49434376 -0.69352096 -0.7172213 0.13593759 -0.28092125 0.022178827 -0.57989025 -0.19465458 0.23179474 0.27564904 -0.25144365 0.30753392 -0.1651951 -0.583075 0.029646844 0.8101794 0.0018592025 -0.33887047 -0.4311464 -1.4521694 1.213271 0.7459743 0.4839213 0.6321829 0.43753043 -0.28833848 0.0056283553 0.9054379 -0.23126869 -0.32205588 0.36172107 -0.40609205 0.46065912 0.7672999 0.19229329
401000 0.1103334 0.24121375 0.22397438 0.298477 -0.8531766 -0.45205963 0.19352363 0.35076147 -0.48809978 -0.5738503 -0.55336404 0.24495766 0.5407661 -0.7221918 -0.18496872 -0.14367141 -1.7115631 -0.29391322 0.3808313 0.20573644 0.60956436 1.5096618 0.09328629 -0.7599314 0.08503154 1.5088717 -0.9455936 -0.20975696 -0.34889832 0.32738835 -1.2986122 -0.49169365 0.43568602 -0.06138999 -0.8832499 0.6090014 0.8452087 0.13530873 1.1335831 0.6289206 0.9856058 0.0919358 -0.0293354 0.027438808 0.37587827 0.5788147 -0.31920925 -0.29371834 -1.6821007 -0.534414 -0.059791666 0.3578135 1.0212638 0.8397368 0.52471757 -0.44513384 -0.31628597 -0.2095171 -0.37392935 -0.29841363 -0.8445085 0.5743967 -0.61987764 1.1216286
368800 0.031116184 -0.6041837 0.6931664 0.60188943 -1.0923504 -0.4164781 0.08545968 0.8459402 -0.2043492 -0.3145558 -0.83460724 0.44514096 0.15510179 -0.098104745 0.7507463 1.0316949 -0.9158827 -0.37250537 0.03508842 1.2535295 -0.26206 1.8473243 -1.1171595 -0.3146996 0.4359363 -0.0103147095 0.3357236 0.18878102 0.55318993 0.60091066 0.54812557 0.20015052 -0.21980424 -0.035878386 0.52467287 0.87563026 0.5119279 0.62507486 0.9620646 -0.18174914 -0.089275785 0.1459469 -0.98018056 0.6965278 0.58044493 0.930216 0.5854953 -0.23579352 -0.46395755 0.47131908 1.5685208 -0.3533719 0.8797982 0.22979029 -0.5440962 -0.4208278 1.0032054 -0.97338283 0.1611221 -0.24897541 -0.34825957 0.15060875 0.79543066 0.61209446
681612 0.015303709 -0.07171858 0.16112728 0.026097825 0.06870392 -1.02744 -0.58590585 -0.09447227 0.119830415 1.0200093 0.07685234 0.7231201 1.1024284 0.7573574 -0.08790766 0.8829881 -0.4818887 -0.21672189 0.13726509 -0.29827544 0.29772753 1.1097522 0.13426824 -0.083667524 -0.14666103 -0.053530984 -0.08778037 -0.18430482 -0.113437615 -0.9370085 -1.1204621 -0.79132396 -0.2329519 -0.36059028 -0.006981813 0.73456424 0.32010576 0.5672052 0.9470575 0.113504514 0.096064046 0.28618068 -0.42301702 0.35497546 0.22532684 0.26137865 -0.25610575 0.107703365 -0.9619321 -0.26085165 0.14378686 0.5980187 0.36552575 -0.34418705 -0.10932529 0.25095886 0.45825672 -0.2520437 0.042164635 -0.08780342 -0.22384684 0.17899668 -0.430137 0.5431279
562292 1.4135218 -0.812285 -0.05268634 -0.065694414 -0.20815988 -0.16221328 -0.55330133 0.6412717 -0.15363096 -0.21453552 -0.321435 -0.32428023 -0.6446977 0.0051357164 -0.0430645 0.18777452 -0.88147736 0.7303134 0.8731614 0.37031555 0.10069866 0.42397657 -0.087854154 -0.87608737 0.26556614 0.054362696 -0.4496089 -0.26816458 0.4327644 -0.39414084 0.47585928 -0.6585731 0.14021395 -0.21895869 -0.5375811 0.24091877 0.37744775 0.4653788 1.0863577 0.28629944 0.7966615 0.30489227 -0.3385904 0.040347837 0.7667935 -0.07955255 -0.4362669 -0.018973721 -0.82019866 0.7346316 0.5213983 -0.029668717 0.058730286 0.0755803 -0.7439927 0.42219585 0.5129366 -0.19690154 0.5350617 -0.5025076 -1.2081116 0.37081575 0.26844814 0.25403008
122092 -0.14744286 -0.81623 0.06813795 0.903636 -0.28282556 -0.49935448 0.011541481 -0.8398925 -0.13089159 0.1285719 -0.24277426 0.6287237 -0.49826166 -0.784237 0.5572327 0.33049315 -1.0539813 0.51464957 0.31264803 0.77428555 -0.11892119 0.7007711 -0.16397634 0.21722624 0.5043443 -0.066026814 -0.38666153 0.57392645 0.49977583 -0.08217056 -0.6237988 0.23882176 0.074570596 -0.5014443 -0.019154545 -0.3330948 0.91157323 0.16547808 0.30001897 -0.25133762 0.26906765 0.19691853 -0.73680663 1.017035 0.57891035 -0.5203982 -0.67683184 -0.38922378 -0.8760122 0.35692587 0.99025035 -0.2430539 -0.031112315 -0.07808245 0.41657633 -0.6606726 0.1216462 -1.1013459 0.42614704 0.30442092 0.08263999 0.4812654 -0.38348618 0.33458236
243208 1.117079 0.35670385 -0.40505636 0.76194406 0.5545549 -0.27983418 0.6127835 -0.4227634 0.20486702 0.054420736 -0.039400604 -0.0008413867 -0.046900477 -0.27902347 1.3257079 0.759847 -0.8809778 -0.7375254 0.42689806 0.7757591 0.004998375 0.24048129 -0.8809138 -0.38583064 -0.028132703 0.7266418 -0.5707119 0.3457023 0.20922406 -0.34011027 -0.44818833 -0.17186113 -0.6624846 -1.0034064 -0.640936 0.64239275 -0.08121594 -0.2625397 0.24561349 0.42000917 -0.16630639 -0.2306023 0.22686684 0.28824878 -0.23110375 0.2093116 -0.38812464 0.040153533 -0.852852 -0.111292414 0.3836495 0.49610272 0.58293647 -0.76312023 0.13803421 -0.3758466 0.54793364 0.0020095073 -0.6311917 0.2739001 -0.36954722 1.338092 -0.6311634 0.27090403
281208 1.1755196 -0.44730803 0.4496013 0.09300119 0.3536749 -0.5988542 -0.44144252 -0.32966936 -0.7746657 0.31042933 -0.34461772 -0.18583637 -0.84121746 0.55701685 -0.033197403 0.57914954 -0.70691776 0.21355854 -0.022549298 1.0354549 0.10806442 0.17992224 0.47399226 -0.5858961 0.98056525 0.26349992 -0.22383766 -0.36750785 0.24004129 -0.123746395 -0.24258344 -0.2342229 -0.53119403 0.8747328 0.006828413 -0.09633969 0.7802563 -0.010210812 0.6662102 0.62475055 -0.12575807 0.36015263 -0.60092956 0.4940856 0.34796268 -0.3769374 -0.16479664 -0.5614857 -0.3863754 0.5211112 0.61040676 0.10948111 0.35171685 0.5474774 0.58246875 -0.0014700948 0.5358572 -0.10608289 -0.18617517 0.6106277 -0.865764 0.07797251 -0.19142547 -0.25353435
240600 -0.26899922 -0.13656144 -0.27202797 0.29046136 0.090301074 -0.33923352 0.3856613 -0.55343205 0.026011003 0.24622652 0.12726264 -0.6292144 0.7745492 0.2449981 -0.16658692 0.44276482 -0.8041278 -0.28272158 -0.3389095 0.955343 0.32955918 0.5654094 0.19018348 -0.93390447 -0.009451191 -0.307225 -0.38866323 0.59988916 0.28952944 0.06051283 -0.23706886 0.53867644 0.1407668 -0.774956 0.52556187 -0.5784806 0.1658233 0.06371045 0.8801552 -0.39412326 0.33133867 0.38982642 -0.8356423 -0.30127278 0.8592431 0.92624897 -0.41378352 -0.6294261 -0.7355213 0.050040122 1.4345278 -0.22007115 0.67700094 0.6944457 -0.56826127 -0.6841137 0.039973915 -0.3399591 -0.42373553 0.60309047 -0.86377233 0.30645347 -0.21860643 0.5539135
281200 1.2137681 0.0453595 0.21240675 0.35896996 -0.09971284 -0.5452752 -0.18684036 -0.19036761 -0.603865 0.20234814 -0.06751776 -0.10880294 -0.8058909 0.47593457 -0.09195267 0.3795379 -0.35906342 0.12803082 -0.24263984 1.4382647 0.5119418 0.47869426 0.11848243 -0.68981326 0.5442646 0.07779622 -0.35314494 -0.190502 0.29682392 -0.028111825 0.08320384 -0.13035658 -0.6484576 0.5642153 0.094771236 -0.05770466 0.28064346 -0.04637403 0.56142855 0.56182665 -0.60752136 -0.08764711 -0.3581751 0.18202882 0.23152786 -0.08557333 0.15311895 -0.66668886 -0.1774038 0.2280577 0.77867997 0.019372007 0.38296732 0.7152777 0.31837192 -0.4419653 1.2949033 0.12645607 -0.05066911 0.7376442 -0.89540535 0.3716044 -0.14038691 -0.5553941
524028 -0.2237557 0.1805863 0.05633546 -0.009902634 -0.16079104 -0.5817109 0.5843466 -0.6223326 0.34831113 -0.40801662 0.12998495 0.41738093 0.4188749 -0.22045241 1.0405227 0.73337495 -0.78498894 -0.7090657 -0.30742398 1.5095519 0.46485692 1.11876 -0.26251265 -1.0507423 0.45353088 0.89469296 0.10234871 -0.2598226 0.9648138 -0.8942255 -0.73180497 -0.059805315 0.13598582 -0.10473032 0.12985055 -0.1774218 0.03882457 -0.22800383 0.2587331 0.5831009 -0.83651674 0.15990973 -0.11768357 0.71633595 0.8445548 0.6220765 0.12247132 -0.77235186 -0.39283127 -0.21653667 0.4984308 0.010532484 0.3742766 -0.19362839 -0.43504837 0.5928194 1.0510639 -1.0293657 0.6813681 0.5900565 -0.53499 0.06702141 -0.06388312 -0.41456074
81840 0.1735477 0.51922166 -0.14799784 0.4638284 -0.35092732 -0.44784737 -0.25132087 -0.13998452 -0.5196893 0.04791822 -0.044540327 0.44765303 0.337763 -0.41693312 0.88181436 1.1911118 -0.2141749 -0.22940691 0.13847722 0.5195436 0.16196471 0.9737497 0.64830536 0.18946914 0.51114756 0.22232626 -0.17522699 0.15192592 0.22913204 -0.28907606 -0.00283887 -0.1427915 -0.3213411 0.4496123 -0.36846176 1.0790145 0.042676963 0.60770345 1.359456 0.3741444 -0.07054937 -0.5797046 -0.1682775 0.6239718 0.23576912 0.39002404 -0.7131526 -0.76490444 -0.3836959 0.57068324 1.0118678 -0.0022183103 0.8066702 0.30815718 -0.40339506 -0.8358714 -0.74579066 -0.50329137 0.25841552 -0.19299428 -0.5351308 0.5360576 -0.83829075 -0.303516
8122816 0.6248696 0.2780904 -0.6317567 0.570345 -0.81306934 -0.05178036 -0.05279406 -0.55673033 0.61131865 -0.03128492 -0.22758964 0.013504502 0.2971131 -0.5111766 -0.2790645 0.68013394 -1.2613137 -0.8763662 0.180404 0.8042304 -0.3571847 1.5593154 0.5011252 0.45129985 -0.26386806 0.5820181 0.23992111 0.55811816 0.6247424 -0.023219198 0.66819763 -0.5546218 0.23699793 -0.27594075 -0.3922304 -0.036058683 1.0542785 0.50747406 0.52642924 -0.072842374 -0.39695767 0.70018834 0.16661303 0.1324174 -0.073403284 0.0007121115 -0.66790044 0.31515592 -0.7142076 0.7771045 0.36248803 0.34053606 0.17751358 0.8515588 0.278605 -0.12438815 0.3640953 -0.15745953 0.058058877 0.16627598 -1.3192631 0.9504035 -0.1463396 -0.22956356
201204 0.49691755 -0.56310785 0.022941496 0.81034094 -0.08425825 0.25007027 -0.22993013 0.27581835 -0.46017766 0.05541996 -0.24006352 0.5667041 0.41153514 0.90149295 1.3589633 1.1379485 0.12682842 0.07054754 -0.095928505 0.8639624 -0.19362581 0.5027275 -0.10777901 -1.2007233 -0.011404907 0.59081197 -0.68898344 -0.13347098 0.17949578 0.29213756 -0.22551164 -0.49343163 0.33677134 -0.041422565 0.18410204 -0.32487965 0.7104019 0.4791963 0.7197227 0.22279261 -0.13634305 0.3858832 -0.42226413 1.0497997 0.077026956 0.7052097 -0.8410331 0.48915502 -0.18355538 -0.66112167 0.9895969 -0.34509566 0.46731898 -0.49694982 -0.27004215 0.075500965 -0.33831823 -0.08948042 0.10512316 0.5595475 -0.75249773 0.7985057 0.40530077 0.5463923
480404 1.066891 -0.2530011 -0.5831976 0.10389954 0.057886623 -0.07278626 -0.81683725 0.43808675 -0.30793065 -0.27675468 -0.44789457 -0.14263512 0.0826611 0.06159134 0.36787894 0.17026976 -0.42137572 0.36101925 0.6185224 0.48632154 0.8064875 0.21764883 0.09597529 -0.7239262 -0.23840241 -0.47641966 -0.83314013 -0.21283984 0.6600823 -0.16605644 0.06904778 -0.50234985 -0.5508034 -0.0717528 -0.2975763 -0.0896787 0.049649365 -0.0061744 0.6586686 0.4309055 0.212918 0.28568518 -0.83525234 -0.28266966 0.97013426 -0.16129366 -1.0574958 -0.17389575 -1.4003874 0.34598204 -0.3819957 -0.35007575 0.5753843 -0.09957642 -0.26422337 0.061290346 -0.14147437 -0.868117 0.012038792 0.6411735 -0.73893446 0.6446081 -0.37036628 0.7027322
20120492 0.7586703 -0.7439766 0.041537497 0.69655377 -0.15386626 0.37289485 -0.16831276 -0.06067814 -0.51739633 -0.21559305 -0.6238367 0.5831242 0.68170714 0.69343 1.6446493 1.0233825 0.052809108 0.0014662661 0.5697225 1.1617849 0.09631276 0.6030852 -0.16482174 -1.0149043 -0.23229204 0.6040463 -0.7730731 -0.36056286 0.3148042 0.41396853 -0.17856772 -0.927037 0.2645672 -0.3454073 0.47123566 -0.3221978 0.6215099 -0.005619963 0.39305136 0.11523913 -0.22959708 0.34501606 -0.21559098 1.0647405 -0.16943625 0.8608492 -0.35350466 0.21484861 -0.30658457 -0.5707212 0.8882286 -0.41093677 1.0213907 0.040457852 0.12036611 0.0517043 -0.058967546 -0.49716648 0.0902258 0.3601872 -0.83478236 0.617405 0.324705 0.1480372
240800 0.6334349 0.14787756 -0.35728216 0.121817306 -0.45448577 -0.18214412 0.2553015 -0.5207971 -0.21576373 -0.038853634 0.4843451 -0.37479073 -0.3504568 -0.07098486 0.9546507 0.98210835 -1.4113319 -0.53650624 0.042386822 0.63059497 -0.3527962 0.7317022 -0.19861662 -0.44279304 0.4834097 0.4868632 -0.16069119 0.7100947 -0.07477044 0.3093306 -0.5785114 -0.016925018 -0.375365 0.018130245 0.19177654 0.009044931 -0.23787117 -0.45884687 -0.16469932 0.24234092 -0.26096082 -0.50149685 -0.0016667421 0.08266201 -0.14168146 0.04761413 -0.3536948 -0.28362575 -1.0324429 -0.2416452 -0.2813142 0.891821 0.33721223 -0.60036707 0.19065124 -0.08055406 0.39563328 0.38856563 0.10776016 0.80854553 -0.67678046 0.33843672 -0.59919304 0.38804743
48100804 0.6858142 -0.2460073 -0.009061844 1.1667671 0.50776136 -0.14419386 -0.00037970417 -0.17383277 0.6082304 -1.1882406 0.0961371 -0.028047055 0.57279825 -0.63465416 0.35985437 0.32469016 -0.77186894 -0.65542203 -0.11343874 0.07058501 0.34300315 0.85853493 -0.2631879 -0.12884621 0.17728911 0.58758825 0.2624476 -0.08289397 0.62294054 -0.4484027 -0.5226685 -0.7551222 -0.31042832 0.07933763 -0.28713822 0.6405124 1.2957888 -0.6474809 0.84502447 -0.10543302 -0.0129673695 0.16892305 -0.75199336 0.25822863 1.0794415 0.8638822 -0.09153021 -0.3646358 -0.22279406 -0.08056157 1.2229812 0.488252 0.3851487 0.007292924 -0.14062543 0.2684737 -0.024609767 -0.14031802 0.029958375 -0.28944626 -0.8679439 0.48990887 0.18577087 0.78028065
121204 0.9238607 -0.32391402 -0.34098998 0.10816734 -0.33247042 -0.068658054 -0.119615525 -0.67781216 0.02347052 0.20092152 -0.40235558 -0.09372026 -0.1744003 -0.51982045 0.09562017 0.6065771 -0.86017126 -0.22918254 0.35621196 0.8694677 -0.11761701 1.2805526 0.23229727 -0.32688957 0.9654214 0.9292873 -0.06299094 1.0596647 0.18003462 0.124853835 -0.34098548 -0.33573264 -0.91733664 -0.60370237 -0.008162764 -0.10381401 -0.28411436 -0.6089431 -0.106637836 0.11727105 0.28002095 -0.5366353 -0.502125 0.062093597 0.108933076 0.31188062 -0.3522387 -0.3662439 -0.61808723 -0.09820455 -0.68986654 0.7361921 0.7452834 -0.22770825 -0.43301523 0.21865241 0.3551636 0.375534 0.052314978 0.8090509 -1.1421882 0.0802534 -0.88686806 0.6502574
8121608 0.54289603 -0.5283431 0.06788748 0.34029144 -0.51139253 -0.030592082 0.035262924 0.13777862 -0.053499818 -0.4804486 -0.14655851 0.56503975 0.35215688 -0.42788824 -0.16373383 1.1505282 -0.43778417 -0.63400793 0.57148534 0.9831622 -0.6612702 1.4529158 0.5693286 -0.27448404 -0.5225985 0.48726907 0.0700024 0.5922856 0.36313158 0.26700506 -0.53673434 -0.023187926 -0.49495602 -0.15272911 -0.6137004 -0.8173654 0.7789347 -0.32925606 0.86137104 0.43757 0.02045481 0.21386467 -0.1742145 0.45371354 0.67012113 -0.31041473 -0.0021331229 0.6701937 -0.6843224 0.36755228 -0.2142349 -0.5400767 1.1023321 -0.6676993 -0.894672 -0.23832713 0.40152025 -0.0019460864 -0.115223326 -0.69255805 -0.13927484 0.5055648 0.17240849 -0.25961852
